digraph Tree {
node [shape=box, style="filled", color="black", fontname="helvetica"] ;
edge [fontname="helvetica"] ;
0 [label="LSTAT <= 8.13\nsquared_error = 85.308\nsamples = 379\nvalue = 22.609", fillcolor="#f5ceb2"] ;
1 [label="RM <= 7.435\nsquared_error = 75.591\nsamples = 135\nvalue = 31.159", fillcolor="#f0b68c"] ;
0 -> 1 [labeldistance=2.5, labelangle=45, headlabel="True"] ;
2 [label="RM <= 6.657\nsquared_error = 37.035\nsamples = 112\nvalue = 28.376", fillcolor="#f1be98"] ;
1 -> 2 ;
3 [label="CRIM <= 4.727\nsquared_error = 18.336\nsamples = 58\nvalue = 24.741", fillcolor="#f4c8a8"] ;
2 -> 3 ;
4 [label="RM <= 6.543\nsquared_error = 7.268\nsamples = 57\nvalue = 24.298", fillcolor="#f4c9aa"] ;
3 -> 4 ;
5 [label="LSTAT <= 7.81\nsquared_error = 3.936\nsamples = 44\nvalue = 23.482", fillcolor="#f4cbae"] ;
4 -> 5 ;
6 [label="AGE <= 56.5\nsquared_error = 2.855\nsamples = 39\nvalue = 23.869", fillcolor="#f4caac"] ;
5 -> 6 ;
7 [label="RM <= 6.134\nsquared_error = 1.766\nsamples = 31\nvalue = 23.458", fillcolor="#f4cbae"] ;
6 -> 7 ;
8 [label="INDUS <= 7.76\nsquared_error = 1.236\nsamples = 5\nvalue = 21.8", fillcolor="#f5d0b5"] ;
7 -> 8 ;
9 [label="RM <= 5.988\nsquared_error = 0.01\nsamples = 2\nvalue = 20.5", fillcolor="#f6d4bb"] ;
8 -> 9 ;
10 [label="squared_error = 0.0\nsamples = 1\nvalue = 20.6", fillcolor="#f6d3ba"] ;
9 -> 10 ;
11 [label="squared_error = -0.0\nsamples = 1\nvalue = 20.4", fillcolor="#f6d4bb"] ;
9 -> 11 ;
12 [label="DIS <= 3.569\nsquared_error = 0.176\nsamples = 3\nvalue = 22.667", fillcolor="#f5ceb1"] ;
8 -> 12 ;
13 [label="squared_error = 0.0\nsamples = 1\nvalue = 22.1", fillcolor="#f5cfb4"] ;
12 -> 13 ;
14 [label="DIS <= 4.893\nsquared_error = 0.023\nsamples = 2\nvalue = 22.95", fillcolor="#f5cdb0"] ;
12 -> 14 ;
15 [label="squared_error = 0.0\nsamples = 1\nvalue = 23.1", fillcolor="#f5ccaf"] ;
14 -> 15 ;
16 [label="squared_error = -0.0\nsamples = 1\nvalue = 22.8", fillcolor="#f5cdb1"] ;
14 -> 16 ;
17 [label="INDUS <= 5.48\nsquared_error = 1.237\nsamples = 26\nvalue = 23.777", fillcolor="#f4caac"] ;
7 -> 17 ;
18 [label="TAX <= 252.5\nsquared_error = 0.942\nsamples = 13\nvalue = 23.031", fillcolor="#f5cdb0"] ;
17 -> 18 ;
19 [label="CRIM <= 0.044\nsquared_error = 0.562\nsamples = 2\nvalue = 21.45", fillcolor="#f5d1b7"] ;
18 -> 19 ;
20 [label="squared_error = 0.0\nsamples = 1\nvalue = 20.7", fillcolor="#f6d3ba"] ;
19 -> 20 ;
21 [label="squared_error = 0.0\nsamples = 1\nvalue = 22.2", fillcolor="#f5cfb3"] ;
19 -> 21 ;
22 [label="DIS <= 7.176\nsquared_error = 0.474\nsamples = 11\nvalue = 23.318", fillcolor="#f4ccae"] ;
18 -> 22 ;
23 [label="B <= 392.205\nsquared_error = 0.382\nsamples = 5\nvalue = 23.84", fillcolor="#f4caac"] ;
22 -> 23 ;
24 [label="RAD <= 5.0\nsquared_error = 0.142\nsamples = 3\nvalue = 23.433", fillcolor="#f4cbae"] ;
23 -> 24 ;
25 [label="squared_error = 0.0\nsamples = 1\nvalue = 22.9", fillcolor="#f5cdb0"] ;
24 -> 25 ;
26 [label="RM <= 6.437\nsquared_error = 0.0\nsamples = 2\nvalue = 23.7", fillcolor="#f4cbad"] ;
24 -> 26 ;
27 [label="squared_error = 0.0\nsamples = 1\nvalue = 23.7", fillcolor="#f4cbad"] ;
26 -> 27 ;
28 [label="squared_error = 0.0\nsamples = 1\nvalue = 23.7", fillcolor="#f4cbad"] ;
26 -> 28 ;
29 [label="CRIM <= 0.036\nsquared_error = 0.122\nsamples = 2\nvalue = 24.45", fillcolor="#f4c9a9"] ;
23 -> 29 ;
30 [label="squared_error = 0.0\nsamples = 1\nvalue = 24.1", fillcolor="#f4caab"] ;
29 -> 30 ;
31 [label="squared_error = -0.0\nsamples = 1\nvalue = 24.8", fillcolor="#f4c8a8"] ;
29 -> 31 ;
32 [label="LSTAT <= 7.37\nsquared_error = 0.135\nsamples = 6\nvalue = 22.883", fillcolor="#f5cdb0"] ;
22 -> 32 ;
33 [label="AGE <= 23.9\nsquared_error = 0.08\nsamples = 5\nvalue = 23.0", fillcolor="#f5cdb0"] ;
32 -> 33 ;
34 [label="squared_error = 0.0\nsamples = 1\nvalue = 22.5", fillcolor="#f5ceb2"] ;
33 -> 34 ;
35 [label="AGE <= 37.85\nsquared_error = 0.022\nsamples = 4\nvalue = 23.125", fillcolor="#f5ccaf"] ;
33 -> 35 ;
36 [label="AGE <= 28.45\nsquared_error = 0.007\nsamples = 3\nvalue = 23.2", fillcolor="#f4ccaf"] ;
35 -> 36 ;
37 [label="squared_error = 0.0\nsamples = 1\nvalue = 23.1", fillcolor="#f5ccaf"] ;
36 -> 37 ;
38 [label="AGE <= 30.25\nsquared_error = 0.002\nsamples = 2\nvalue = 23.25", fillcolor="#f4ccaf"] ;
36 -> 38 ;
39 [label="squared_error = 0.0\nsamples = 1\nvalue = 23.3", fillcolor="#f4ccae"] ;
38 -> 39 ;
40 [label="squared_error = 0.0\nsamples = 1\nvalue = 23.2", fillcolor="#f4ccaf"] ;
38 -> 40 ;
41 [label="squared_error = 0.0\nsamples = 1\nvalue = 22.9", fillcolor="#f5cdb0"] ;
35 -> 41 ;
42 [label="squared_error = 0.0\nsamples = 1\nvalue = 22.3", fillcolor="#f5cfb3"] ;
32 -> 42 ;
43 [label="LSTAT <= 6.655\nsquared_error = 0.419\nsamples = 13\nvalue = 24.523", fillcolor="#f4c8a9"] ;
17 -> 43 ;
44 [label="RAD <= 4.5\nsquared_error = 0.079\nsamples = 8\nvalue = 24.912", fillcolor="#f3c7a7"] ;
43 -> 44 ;
45 [label="RAD <= 3.5\nsquared_error = 0.017\nsamples = 4\nvalue = 25.125", fillcolor="#f3c7a6"] ;
44 -> 45 ;
46 [label="LSTAT <= 6.2\nsquared_error = 0.003\nsamples = 2\nvalue = 25.25", fillcolor="#f3c6a6"] ;
45 -> 46 ;
47 [label="squared_error = 0.0\nsamples = 1\nvalue = 25.3", fillcolor="#f3c6a6"] ;
46 -> 47 ;
48 [label="squared_error = 0.0\nsamples = 1\nvalue = 25.2", fillcolor="#f3c6a6"] ;
46 -> 48 ;
49 [label="squared_error = 0.0\nsamples = 2\nvalue = 25.0", fillcolor="#f3c7a7"] ;
45 -> 49 ;
50 [label="CRIM <= 0.203\nsquared_error = 0.05\nsamples = 4\nvalue = 24.7", fillcolor="#f4c8a8"] ;
44 -> 50 ;
51 [label="NOX <= 0.462\nsquared_error = 0.01\nsamples = 2\nvalue = 24.5", fillcolor="#f4c8a9"] ;
50 -> 51 ;
52 [label="squared_error = 0.0\nsamples = 1\nvalue = 24.4", fillcolor="#f4c9aa"] ;
51 -> 52 ;
53 [label="squared_error = 0.0\nsamples = 1\nvalue = 24.6", fillcolor="#f4c8a9"] ;
51 -> 53 ;
54 [label="RM <= 6.427\nsquared_error = 0.01\nsamples = 2\nvalue = 24.9", fillcolor="#f4c7a7"] ;
50 -> 54 ;
55 [label="squared_error = 0.0\nsamples = 1\nvalue = 25.0", fillcolor="#f3c7a7"] ;
54 -> 55 ;
56 [label="squared_error = 0.0\nsamples = 1\nvalue = 24.8", fillcolor="#f4c8a8"] ;
54 -> 56 ;
57 [label="CRIM <= 0.17\nsquared_error = 0.332\nsamples = 5\nvalue = 23.9", fillcolor="#f4caac"] ;
43 -> 57 ;
58 [label="NOX <= 0.443\nsquared_error = 0.069\nsamples = 3\nvalue = 24.333", fillcolor="#f4c9aa"] ;
57 -> 58 ;
59 [label="LSTAT <= 6.75\nsquared_error = 0.003\nsamples = 2\nvalue = 24.15", fillcolor="#f4c9ab"] ;
58 -> 59 ;
60 [label="squared_error = 0.0\nsamples = 1\nvalue = 24.2", fillcolor="#f4c9ab"] ;
59 -> 60 ;
61 [label="squared_error = 0.0\nsamples = 1\nvalue = 24.1", fillcolor="#f4caab"] ;
59 -> 61 ;
62 [label="squared_error = -0.0\nsamples = 1\nvalue = 24.7", fillcolor="#f4c8a8"] ;
58 -> 62 ;
63 [label="NOX <= 0.453\nsquared_error = 0.023\nsamples = 2\nvalue = 23.25", fillcolor="#f4ccaf"] ;
57 -> 63 ;
64 [label="squared_error = 0.0\nsamples = 1\nvalue = 23.4", fillcolor="#f4cbae"] ;
63 -> 64 ;
65 [label="squared_error = 0.0\nsamples = 1\nvalue = 23.1", fillcolor="#f5ccaf"] ;
63 -> 65 ;
66 [label="LSTAT <= 5.895\nsquared_error = 3.885\nsamples = 8\nvalue = 25.463", fillcolor="#f3c6a5"] ;
6 -> 66 ;
67 [label="CHAS <= 0.5\nsquared_error = 0.722\nsamples = 2\nvalue = 27.85", fillcolor="#f2bf9a"] ;
66 -> 67 ;
68 [label="squared_error = 0.0\nsamples = 1\nvalue = 28.7", fillcolor="#f1bd97"] ;
67 -> 68 ;
69 [label="squared_error = -0.0\nsamples = 1\nvalue = 27.0", fillcolor="#f2c19e"] ;
67 -> 69 ;
70 [label="RM <= 4.814\nsquared_error = 2.406\nsamples = 6\nvalue = 24.667", fillcolor="#f4c8a8"] ;
66 -> 70 ;
71 [label="squared_error = 0.0\nsamples = 1\nvalue = 27.5", fillcolor="#f2c09c"] ;
70 -> 71 ;
72 [label="DIS <= 5.572\nsquared_error = 0.96\nsamples = 5\nvalue = 24.1", fillcolor="#f4caab"] ;
70 -> 72 ;
73 [label="RAD <= 14.5\nsquared_error = 0.072\nsamples = 4\nvalue = 24.575", fillcolor="#f4c8a9"] ;
72 -> 73 ;
74 [label="INDUS <= 5.505\nsquared_error = 0.016\nsamples = 3\nvalue = 24.433", fillcolor="#f4c9a9"] ;
73 -> 74 ;
75 [label="squared_error = 0.0\nsamples = 1\nvalue = 24.6", fillcolor="#f4c8a9"] ;
74 -> 75 ;
76 [label="RM <= 6.302\nsquared_error = 0.002\nsamples = 2\nvalue = 24.35", fillcolor="#f4c9aa"] ;
74 -> 76 ;
77 [label="squared_error = 0.0\nsamples = 1\nvalue = 24.3", fillcolor="#f4c9aa"] ;
76 -> 77 ;
78 [label="squared_error = -0.0\nsamples = 1\nvalue = 24.4", fillcolor="#f4c9aa"] ;
76 -> 78 ;
79 [label="squared_error = 0.0\nsamples = 1\nvalue = 25.0", fillcolor="#f3c7a7"] ;
73 -> 79 ;
80 [label="squared_error = -0.0\nsamples = 1\nvalue = 22.2", fillcolor="#f5cfb3"] ;
72 -> 80 ;
81 [label="ZN <= 23.75\nsquared_error = 2.062\nsamples = 5\nvalue = 20.46", fillcolor="#f6d4bb"] ;
5 -> 81 ;
82 [label="PTRATIO <= 19.55\nsquared_error = 0.136\nsamples = 3\nvalue = 21.567", fillcolor="#f5d1b6"] ;
81 -> 82 ;
83 [label="AGE <= 52.1\nsquared_error = 0.04\nsamples = 2\nvalue = 21.8", fillcolor="#f5d0b5"] ;
82 -> 83 ;
84 [label="squared_error = 0.0\nsamples = 1\nvalue = 22.0", fillcolor="#f5cfb4"] ;
83 -> 84 ;
85 [label="squared_error = 0.0\nsamples = 1\nvalue = 21.6", fillcolor="#f5d1b6"] ;
83 -> 85 ;
86 [label="squared_error = -0.0\nsamples = 1\nvalue = 21.1", fillcolor="#f6d2b8"] ;
82 -> 86 ;
87 [label="PTRATIO <= 19.45\nsquared_error = 0.36\nsamples = 2\nvalue = 18.8", fillcolor="#f7d8c2"] ;
81 -> 87 ;
88 [label="squared_error = 0.0\nsamples = 1\nvalue = 19.4", fillcolor="#f7d7c0"] ;
87 -> 88 ;
89 [label="squared_error = 0.0\nsamples = 1\nvalue = 18.2", fillcolor="#f7dac5"] ;
87 -> 89 ;
90 [label="TAX <= 278.0\nsquared_error = 8.655\nsamples = 13\nvalue = 27.062", fillcolor="#f2c19e"] ;
4 -> 90 ;
91 [label="RM <= 6.599\nsquared_error = 3.758\nsamples = 6\nvalue = 29.217", fillcolor="#f1bb94"] ;
90 -> 91 ;
92 [label="AGE <= 58.7\nsquared_error = 0.723\nsamples = 2\nvalue = 31.65", fillcolor="#f0b48a"] ;
91 -> 92 ;
93 [label="squared_error = 0.0\nsamples = 1\nvalue = 30.8", fillcolor="#f0b78d"] ;
92 -> 93 ;
94 [label="squared_error = 0.0\nsamples = 1\nvalue = 32.5", fillcolor="#efb286"] ;
92 -> 94 ;
95 [label="NOX <= 0.447\nsquared_error = 0.835\nsamples = 4\nvalue = 28.0", fillcolor="#f2bf9a"] ;
91 -> 95 ;
96 [label="DIS <= 5.668\nsquared_error = 0.242\nsamples = 3\nvalue = 28.467", fillcolor="#f1bd98"] ;
95 -> 96 ;
97 [label="PTRATIO <= 18.6\nsquared_error = 0.062\nsamples = 2\nvalue = 28.15", fillcolor="#f2be99"] ;
96 -> 97 ;
98 [label="squared_error = 0.0\nsamples = 1\nvalue = 28.4", fillcolor="#f1bd98"] ;
97 -> 98 ;
99 [label="squared_error = -0.0\nsamples = 1\nvalue = 27.9", fillcolor="#f2bf9a"] ;
97 -> 99 ;
100 [label="squared_error = -0.0\nsamples = 1\nvalue = 29.1", fillcolor="#f1bc95"] ;
96 -> 100 ;
101 [label="squared_error = 0.0\nsamples = 1\nvalue = 26.6", fillcolor="#f3c3a0"] ;
95 -> 101 ;
102 [label="LSTAT <= 7.305\nsquared_error = 5.458\nsamples = 7\nvalue = 25.214", fillcolor="#f3c6a6"] ;
90 -> 102 ;
103 [label="LSTAT <= 4.76\nsquared_error = 0.322\nsamples = 5\nvalue = 23.86", fillcolor="#f4caac"] ;
102 -> 103 ;
104 [label="squared_error = 0.0\nsamples = 1\nvalue = 22.8", fillcolor="#f5cdb1"] ;
103 -> 104 ;
105 [label="RM <= 6.627\nsquared_error = 0.052\nsamples = 4\nvalue = 24.125", fillcolor="#f4c9ab"] ;
103 -> 105 ;
106 [label="AGE <= 50.55\nsquared_error = 0.007\nsamples = 3\nvalue = 24.0", fillcolor="#f4caab"] ;
105 -> 106 ;
107 [label="squared_error = 0.0\nsamples = 1\nvalue = 24.1", fillcolor="#f4caab"] ;
106 -> 107 ;
108 [label="RM <= 6.597\nsquared_error = 0.003\nsamples = 2\nvalue = 23.95", fillcolor="#f4caac"] ;
106 -> 108 ;
109 [label="squared_error = 0.0\nsamples = 1\nvalue = 24.0", fillcolor="#f4caab"] ;
108 -> 109 ;
110 [label="squared_error = 0.0\nsamples = 1\nvalue = 23.9", fillcolor="#f4caac"] ;
108 -> 110 ;
111 [label="squared_error = 0.0\nsamples = 1\nvalue = 24.5", fillcolor="#f4c8a9"] ;
105 -> 111 ;
112 [label="B <= 394.875\nsquared_error = 2.25\nsamples = 2\nvalue = 28.6", fillcolor="#f1bd97"] ;
102 -> 112 ;
113 [label="squared_error = 0.0\nsamples = 1\nvalue = 27.1", fillcolor="#f2c19e"] ;
112 -> 113 ;
114 [label="squared_error = -0.0\nsamples = 1\nvalue = 30.1", fillcolor="#f0b991"] ;
112 -> 114 ;
115 [label="squared_error = 0.0\nsamples = 1\nvalue = 50.0", fillcolor="#e58139"] ;
3 -> 115 ;
116 [label="DIS <= 1.626\nsquared_error = 27.691\nsamples = 54\nvalue = 32.28", fillcolor="#efb387"] ;
2 -> 116 ;
117 [label="squared_error = 0.0\nsamples = 2\nvalue = 50.0", fillcolor="#e58139"] ;
116 -> 117 ;
118 [label="PTRATIO <= 19.45\nsquared_error = 16.214\nsamples = 52\nvalue = 31.598", fillcolor="#f0b58a"] ;
116 -> 118 ;
119 [label="RM <= 6.906\nsquared_error = 12.185\nsamples = 47\nvalue = 32.321", fillcolor="#efb387"] ;
118 -> 119 ;
120 [label="RM <= 6.728\nsquared_error = 7.118\nsamples = 18\nvalue = 29.8", fillcolor="#f1ba92"] ;
119 -> 120 ;
121 [label="TAX <= 318.5\nsquared_error = 3.542\nsamples = 5\nvalue = 27.14", fillcolor="#f2c19e"] ;
120 -> 121 ;
122 [label="NOX <= 0.432\nsquared_error = 0.169\nsamples = 3\nvalue = 28.533", fillcolor="#f1bd97"] ;
121 -> 122 ;
123 [label="squared_error = 0.0\nsamples = 1\nvalue = 28.0", fillcolor="#f2bf9a"] ;
122 -> 123 ;
124 [label="NOX <= 0.472\nsquared_error = 0.04\nsamples = 2\nvalue = 28.8", fillcolor="#f1bc96"] ;
122 -> 124 ;
125 [label="squared_error = 0.0\nsamples = 1\nvalue = 28.6", fillcolor="#f1bd97"] ;
124 -> 125 ;
126 [label="squared_error = 0.0\nsamples = 1\nvalue = 29.0", fillcolor="#f1bc95"] ;
124 -> 126 ;
127 [label="NOX <= 0.457\nsquared_error = 1.323\nsamples = 2\nvalue = 25.05", fillcolor="#f3c7a7"] ;
121 -> 127 ;
128 [label="squared_error = 0.0\nsamples = 1\nvalue = 26.2", fillcolor="#f3c4a2"] ;
127 -> 128 ;
129 [label="squared_error = 0.0\nsamples = 1\nvalue = 23.9", fillcolor="#f4caac"] ;
127 -> 129 ;
130 [label="PTRATIO <= 17.75\nsquared_error = 4.725\nsamples = 13\nvalue = 30.823", fillcolor="#f0b78d"] ;
120 -> 130 ;
131 [label="B <= 393.41\nsquared_error = 2.29\nsamples = 10\nvalue = 31.74", fillcolor="#f0b489"] ;
130 -> 131 ;
132 [label="B <= 392.415\nsquared_error = 0.446\nsamples = 5\nvalue = 30.56", fillcolor="#f0b78f"] ;
131 -> 132 ;
133 [label="TAX <= 280.0\nsquared_error = 0.009\nsamples = 3\nvalue = 30.033", fillcolor="#f1b991"] ;
132 -> 133 ;
134 [label="TAX <= 225.5\nsquared_error = 0.0\nsamples = 2\nvalue = 30.1", fillcolor="#f0b991"] ;
133 -> 134 ;
135 [label="squared_error = 0.0\nsamples = 1\nvalue = 30.1", fillcolor="#f0b991"] ;
134 -> 135 ;
136 [label="squared_error = 0.0\nsamples = 1\nvalue = 30.1", fillcolor="#f0b991"] ;
134 -> 136 ;
137 [label="squared_error = 0.0\nsamples = 1\nvalue = 29.9", fillcolor="#f1b991"] ;
133 -> 137 ;
138 [label="RAD <= 3.0\nsquared_error = 0.063\nsamples = 2\nvalue = 31.35", fillcolor="#f0b58b"] ;
132 -> 138 ;
139 [label="squared_error = 0.0\nsamples = 1\nvalue = 31.1", fillcolor="#f0b68c"] ;
138 -> 139 ;
140 [label="squared_error = -0.0\nsamples = 1\nvalue = 31.6", fillcolor="#f0b58a"] ;
138 -> 140 ;
141 [label="ZN <= 30.0\nsquared_error = 1.35\nsamples = 5\nvalue = 32.92", fillcolor="#efb184"] ;
131 -> 141 ;
142 [label="squared_error = 0.0\nsamples = 1\nvalue = 35.1", fillcolor="#eeab7b"] ;
141 -> 142 ;
143 [label="AGE <= 30.25\nsquared_error = 0.202\nsamples = 4\nvalue = 32.375", fillcolor="#efb287"] ;
141 -> 143 ;
144 [label="squared_error = 0.0\nsamples = 1\nvalue = 33.1", fillcolor="#efb083"] ;
143 -> 144 ;
145 [label="CHAS <= 0.5\nsquared_error = 0.036\nsamples = 3\nvalue = 32.133", fillcolor="#efb388"] ;
143 -> 145 ;
146 [label="squared_error = 0.0\nsamples = 2\nvalue = 32.0", fillcolor="#efb388"] ;
145 -> 146 ;
147 [label="squared_error = -0.0\nsamples = 1\nvalue = 32.4", fillcolor="#efb286"] ;
145 -> 147 ;
148 [label="CRIM <= 0.088\nsquared_error = 0.696\nsamples = 3\nvalue = 27.767", fillcolor="#f2bf9b"] ;
130 -> 148 ;
149 [label="RAD <= 5.5\nsquared_error = 0.023\nsamples = 2\nvalue = 28.35", fillcolor="#f2be98"] ;
148 -> 149 ;
150 [label="squared_error = 0.0\nsamples = 1\nvalue = 28.5", fillcolor="#f1bd98"] ;
149 -> 150 ;
151 [label="squared_error = -0.0\nsamples = 1\nvalue = 28.2", fillcolor="#f2be99"] ;
149 -> 151 ;
152 [label="squared_error = 0.0\nsamples = 1\nvalue = 26.6", fillcolor="#f3c3a0"] ;
148 -> 152 ;
153 [label="TAX <= 267.0\nsquared_error = 8.935\nsamples = 29\nvalue = 33.886", fillcolor="#eeae80"] ;
119 -> 153 ;
154 [label="CRIM <= 0.035\nsquared_error = 2.211\nsamples = 14\nvalue = 35.514", fillcolor="#edaa79"] ;
153 -> 154 ;
155 [label="TAX <= 224.0\nsquared_error = 0.846\nsamples = 5\nvalue = 34.28", fillcolor="#eead7e"] ;
154 -> 155 ;
156 [label="TAX <= 219.0\nsquared_error = 0.04\nsamples = 2\nvalue = 33.2", fillcolor="#efb083"] ;
155 -> 156 ;
157 [label="squared_error = 0.0\nsamples = 1\nvalue = 33.0", fillcolor="#efb184"] ;
156 -> 157 ;
158 [label="squared_error = -0.0\nsamples = 1\nvalue = 33.4", fillcolor="#efaf82"] ;
156 -> 158 ;
159 [label="B <= 395.775\nsquared_error = 0.087\nsamples = 3\nvalue = 35.0", fillcolor="#eeab7b"] ;
155 -> 159 ;
160 [label="TAX <= 247.0\nsquared_error = 0.01\nsamples = 2\nvalue = 34.8", fillcolor="#eeac7c"] ;
159 -> 160 ;
161 [label="squared_error = 0.0\nsamples = 1\nvalue = 34.7", fillcolor="#eeac7c"] ;
160 -> 161 ;
162 [label="squared_error = 0.0\nsamples = 1\nvalue = 34.9", fillcolor="#eeab7b"] ;
160 -> 162 ;
163 [label="squared_error = -0.0\nsamples = 1\nvalue = 35.4", fillcolor="#edaa79"] ;
159 -> 163 ;
164 [label="CHAS <= 0.5\nsquared_error = 1.653\nsamples = 9\nvalue = 36.2", fillcolor="#eda876"] ;
154 -> 164 ;
165 [label="RAD <= 4.5\nsquared_error = 0.594\nsamples = 8\nvalue = 36.575", fillcolor="#eda774"] ;
164 -> 165 ;
166 [label="INDUS <= 2.32\nsquared_error = 0.372\nsamples = 4\nvalue = 37.15", fillcolor="#eca572"] ;
165 -> 166 ;
167 [label="squared_error = 0.0\nsamples = 1\nvalue = 36.2", fillcolor="#eda876"] ;
166 -> 167 ;
168 [label="B <= 395.51\nsquared_error = 0.096\nsamples = 3\nvalue = 37.467", fillcolor="#eca470"] ;
166 -> 168 ;
169 [label="squared_error = 0.0\nsamples = 1\nvalue = 37.9", fillcolor="#eca36e"] ;
168 -> 169 ;
170 [label="LSTAT <= 4.3\nsquared_error = 0.003\nsamples = 2\nvalue = 37.25", fillcolor="#eca571"] ;
168 -> 170 ;
171 [label="squared_error = 0.0\nsamples = 1\nvalue = 37.3", fillcolor="#eca571"] ;
170 -> 171 ;
172 [label="squared_error = 0.0\nsamples = 1\nvalue = 37.2", fillcolor="#eca571"] ;
170 -> 172 ;
173 [label="DIS <= 4.633\nsquared_error = 0.155\nsamples = 4\nvalue = 36.0", fillcolor="#eda877"] ;
165 -> 173 ;
174 [label="RM <= 7.221\nsquared_error = 0.047\nsamples = 3\nvalue = 36.2", fillcolor="#eda876"] ;
173 -> 174 ;
175 [label="squared_error = 0.0\nsamples = 1\nvalue = 36.5", fillcolor="#eda774"] ;
174 -> 175 ;
176 [label="NOX <= 0.56\nsquared_error = 0.003\nsamples = 2\nvalue = 36.05", fillcolor="#eda876"] ;
174 -> 176 ;
177 [label="squared_error = 0.0\nsamples = 1\nvalue = 36.1", fillcolor="#eda876"] ;
176 -> 177 ;
178 [label="squared_error = 0.0\nsamples = 1\nvalue = 36.0", fillcolor="#eda877"] ;
176 -> 178 ;
179 [label="squared_error = -0.0\nsamples = 1\nvalue = 35.4", fillcolor="#edaa79"] ;
173 -> 179 ;
180 [label="squared_error = 0.0\nsamples = 1\nvalue = 33.2", fillcolor="#efb083"] ;
164 -> 180 ;
181 [label="TAX <= 273.0\nsquared_error = 10.428\nsamples = 15\nvalue = 32.367", fillcolor="#efb287"] ;
153 -> 181 ;
182 [label="B <= 396.48\nsquared_error = 6.503\nsamples = 2\nvalue = 26.15", fillcolor="#f3c4a2"] ;
181 -> 182 ;
183 [label="squared_error = 0.0\nsamples = 1\nvalue = 28.7", fillcolor="#f1bd97"] ;
182 -> 183 ;
184 [label="squared_error = 0.0\nsamples = 1\nvalue = 23.6", fillcolor="#f4cbad"] ;
182 -> 184 ;
185 [label="PTRATIO <= 15.25\nsquared_error = 4.171\nsamples = 13\nvalue = 33.323", fillcolor="#efb082"] ;
181 -> 185 ;
186 [label="B <= 391.345\nsquared_error = 1.007\nsamples = 4\nvalue = 35.725", fillcolor="#eda978"] ;
185 -> 186 ;
187 [label="RM <= 7.065\nsquared_error = 0.09\nsamples = 2\nvalue = 36.7", fillcolor="#eda674"] ;
186 -> 187 ;
188 [label="squared_error = 0.0\nsamples = 1\nvalue = 37.0", fillcolor="#eda572"] ;
187 -> 188 ;
189 [label="squared_error = -0.0\nsamples = 1\nvalue = 36.4", fillcolor="#eda775"] ;
187 -> 189 ;
190 [label="AGE <= 38.6\nsquared_error = 0.023\nsamples = 2\nvalue = 34.75", fillcolor="#eeac7c"] ;
186 -> 190 ;
191 [label="squared_error = 0.0\nsamples = 1\nvalue = 34.6", fillcolor="#eeac7d"] ;
190 -> 191 ;
192 [label="squared_error = 0.0\nsamples = 1\nvalue = 34.9", fillcolor="#eeab7b"] ;
190 -> 192 ;
193 [label="INDUS <= 2.93\nsquared_error = 1.874\nsamples = 9\nvalue = 32.256", fillcolor="#efb387"] ;
185 -> 193 ;
194 [label="RM <= 7.055\nsquared_error = 0.757\nsamples = 4\nvalue = 33.425", fillcolor="#efaf82"] ;
193 -> 194 ;
195 [label="squared_error = 0.0\nsamples = 1\nvalue = 34.9", fillcolor="#eeab7b"] ;
194 -> 195 ;
196 [label="TAX <= 280.0\nsquared_error = 0.042\nsamples = 3\nvalue = 32.933", fillcolor="#efb184"] ;
194 -> 196 ;
197 [label="squared_error = 0.0\nsamples = 1\nvalue = 33.2", fillcolor="#efb083"] ;
196 -> 197 ;
198 [label="RAD <= 2.0\nsquared_error = 0.01\nsamples = 2\nvalue = 32.8", fillcolor="#efb185"] ;
196 -> 198 ;
199 [label="squared_error = 0.0\nsamples = 1\nvalue = 32.7", fillcolor="#efb185"] ;
198 -> 199 ;
200 [label="squared_error = 0.0\nsamples = 1\nvalue = 32.9", fillcolor="#efb184"] ;
198 -> 200 ;
201 [label="LSTAT <= 4.13\nsquared_error = 0.798\nsamples = 5\nvalue = 31.32", fillcolor="#f0b58b"] ;
193 -> 201 ;
202 [label="squared_error = 0.0\nsamples = 1\nvalue = 29.6", fillcolor="#f1ba93"] ;
201 -> 202 ;
203 [label="AGE <= 46.2\nsquared_error = 0.072\nsamples = 4\nvalue = 31.75", fillcolor="#f0b489"] ;
201 -> 203 ;
204 [label="squared_error = 0.0\nsamples = 1\nvalue = 32.2", fillcolor="#efb387"] ;
203 -> 204 ;
205 [label="NOX <= 0.506\nsquared_error = 0.007\nsamples = 3\nvalue = 31.6", fillcolor="#f0b58a"] ;
203 -> 205 ;
206 [label="CRIM <= 0.438\nsquared_error = 0.003\nsamples = 2\nvalue = 31.65", fillcolor="#f0b48a"] ;
205 -> 206 ;
207 [label="squared_error = 0.0\nsamples = 1\nvalue = 31.6", fillcolor="#f0b58a"] ;
206 -> 207 ;
208 [label="squared_error = 0.0\nsamples = 1\nvalue = 31.7", fillcolor="#f0b48a"] ;
206 -> 208 ;
209 [label="squared_error = -0.0\nsamples = 1\nvalue = 31.5", fillcolor="#f0b58a"] ;
205 -> 209 ;
210 [label="AGE <= 83.15\nsquared_error = 2.964\nsamples = 5\nvalue = 24.8", fillcolor="#f4c8a8"] ;
118 -> 210 ;
211 [label="TAX <= 525.0\nsquared_error = 0.536\nsamples = 3\nvalue = 26.033", fillcolor="#f3c4a2"] ;
210 -> 211 ;
212 [label="NOX <= 0.474\nsquared_error = 0.003\nsamples = 2\nvalue = 26.55", fillcolor="#f3c3a0"] ;
211 -> 212 ;
213 [label="squared_error = 0.0\nsamples = 1\nvalue = 26.6", fillcolor="#f3c3a0"] ;
212 -> 213 ;
214 [label="squared_error = -0.0\nsamples = 1\nvalue = 26.5", fillcolor="#f3c3a0"] ;
212 -> 214 ;
215 [label="squared_error = 0.0\nsamples = 1\nvalue = 25.0", fillcolor="#f3c7a7"] ;
211 -> 215 ;
216 [label="AGE <= 90.15\nsquared_error = 0.902\nsamples = 2\nvalue = 22.95", fillcolor="#f5cdb0"] ;
210 -> 216 ;
217 [label="squared_error = 0.0\nsamples = 1\nvalue = 22.0", fillcolor="#f5cfb4"] ;
216 -> 217 ;
218 [label="squared_error = 0.0\nsamples = 1\nvalue = 23.9", fillcolor="#f4caac"] ;
216 -> 218 ;
219 [label="PTRATIO <= 18.3\nsquared_error = 42.031\nsamples = 23\nvalue = 44.709", fillcolor="#e89050"] ;
1 -> 219 ;
220 [label="CRIM <= 0.577\nsquared_error = 14.587\nsamples = 21\nvalue = 46.248", fillcolor="#e78c4a"] ;
219 -> 220 ;
221 [label="CRIM <= 0.064\nsquared_error = 13.371\nsamples = 16\nvalue = 45.075", fillcolor="#e88f4f"] ;
220 -> 221 ;
222 [label="RM <= 7.826\nsquared_error = 7.987\nsamples = 8\nvalue = 47.025", fillcolor="#e78946"] ;
221 -> 222 ;
223 [label="NOX <= 0.429\nsquared_error = 2.032\nsamples = 4\nvalue = 44.425", fillcolor="#e89152"] ;
222 -> 223 ;
224 [label="ZN <= 86.25\nsquared_error = 0.723\nsamples = 2\nvalue = 43.15", fillcolor="#e99457"] ;
223 -> 224 ;
225 [label="squared_error = 0.0\nsamples = 1\nvalue = 42.3", fillcolor="#e9975b"] ;
224 -> 225 ;
226 [label="squared_error = 0.0\nsamples = 1\nvalue = 44.0", fillcolor="#e89253"] ;
224 -> 226 ;
227 [label="RM <= 7.733\nsquared_error = 0.09\nsamples = 2\nvalue = 45.7", fillcolor="#e78d4c"] ;
223 -> 227 ;
228 [label="squared_error = 0.0\nsamples = 1\nvalue = 46.0", fillcolor="#e78c4b"] ;
227 -> 228 ;
229 [label="squared_error = -0.0\nsamples = 1\nvalue = 45.4", fillcolor="#e88e4d"] ;
227 -> 229 ;
230 [label="B <= 392.705\nsquared_error = 0.422\nsamples = 4\nvalue = 49.625", fillcolor="#e5823b"] ;
222 -> 230 ;
231 [label="squared_error = 0.0\nsamples = 2\nvalue = 50.0", fillcolor="#e58139"] ;
230 -> 231 ;
232 [label="CRIM <= 0.024\nsquared_error = 0.562\nsamples = 2\nvalue = 49.25", fillcolor="#e5833c"] ;
230 -> 232 ;
233 [label="squared_error = 0.0\nsamples = 1\nvalue = 50.0", fillcolor="#e58139"] ;
232 -> 233 ;
234 [label="squared_error = 0.0\nsamples = 1\nvalue = 48.5", fillcolor="#e68540"] ;
232 -> 234 ;
235 [label="RM <= 8.367\nsquared_error = 11.149\nsamples = 8\nvalue = 43.125", fillcolor="#e99457"] ;
221 -> 235 ;
236 [label="AGE <= 62.95\nsquared_error = 7.484\nsamples = 7\nvalue = 42.314", fillcolor="#e9975b"] ;
235 -> 236 ;
237 [label="LSTAT <= 3.745\nsquared_error = 2.082\nsamples = 3\nvalue = 44.667", fillcolor="#e89050"] ;
236 -> 237 ;
238 [label="RAD <= 3.5\nsquared_error = 0.023\nsamples = 2\nvalue = 43.65", fillcolor="#e99355"] ;
237 -> 238 ;
239 [label="squared_error = 0.0\nsamples = 1\nvalue = 43.8", fillcolor="#e99254"] ;
238 -> 239 ;
240 [label="squared_error = -0.0\nsamples = 1\nvalue = 43.5", fillcolor="#e99356"] ;
238 -> 240 ;
241 [label="squared_error = 0.0\nsamples = 1\nvalue = 46.7", fillcolor="#e78a48"] ;
237 -> 241 ;
242 [label="CRIM <= 0.458\nsquared_error = 4.273\nsamples = 4\nvalue = 40.55", fillcolor="#ea9b63"] ;
236 -> 242 ;
243 [label="LSTAT <= 5.345\nsquared_error = 1.21\nsamples = 2\nvalue = 38.7", fillcolor="#eca16b"] ;
242 -> 243 ;
244 [label="squared_error = 0.0\nsamples = 1\nvalue = 37.6", fillcolor="#eca470"] ;
243 -> 244 ;
245 [label="squared_error = -0.0\nsamples = 1\nvalue = 39.8", fillcolor="#eb9e66"] ;
243 -> 245 ;
246 [label="ZN <= 10.0\nsquared_error = 0.49\nsamples = 2\nvalue = 42.4", fillcolor="#e9965a"] ;
242 -> 246 ;
247 [label="squared_error = 0.0\nsamples = 1\nvalue = 41.7", fillcolor="#ea985e"] ;
246 -> 247 ;
248 [label="squared_error = -0.0\nsamples = 1\nvalue = 43.1", fillcolor="#e99457"] ;
246 -> 248 ;
249 [label="squared_error = -0.0\nsamples = 1\nvalue = 48.8", fillcolor="#e6843e"] ;
235 -> 249 ;
250 [label="squared_error = -0.0\nsamples = 5\nvalue = 50.0", fillcolor="#e58139"] ;
220 -> 250 ;
251 [label="RM <= 8.235\nsquared_error = 44.223\nsamples = 2\nvalue = 28.55", fillcolor="#f1bd97"] ;
219 -> 251 ;
252 [label="squared_error = 0.0\nsamples = 1\nvalue = 35.2", fillcolor="#eeaa7a"] ;
251 -> 252 ;
253 [label="squared_error = -0.0\nsamples = 1\nvalue = 21.9", fillcolor="#f5d0b5"] ;
251 -> 253 ;
254 [label="LSTAT <= 15.0\nsquared_error = 27.863\nsamples = 244\nvalue = 17.878", fillcolor="#f8dbc6"] ;
0 -> 254 [labeldistance=2.5, labelangle=-45, headlabel="False"] ;
255 [label="RM <= 6.605\nsquared_error = 14.1\nsamples = 121\nvalue = 21.489", fillcolor="#f5d1b6"] ;
254 -> 255 ;
256 [label="INDUS <= 2.85\nsquared_error = 9.095\nsamples = 108\nvalue = 20.844", fillcolor="#f6d3b9"] ;
255 -> 256 ;
257 [label="AGE <= 47.05\nsquared_error = 32.854\nsamples = 5\nvalue = 26.86", fillcolor="#f2c29f"] ;
256 -> 257 ;
258 [label="DIS <= 8.198\nsquared_error = 0.902\nsamples = 2\nvalue = 21.05", fillcolor="#f6d2b8"] ;
257 -> 258 ;
259 [label="squared_error = 0.0\nsamples = 1\nvalue = 22.0", fillcolor="#f5cfb4"] ;
258 -> 259 ;
260 [label="squared_error = -0.0\nsamples = 1\nvalue = 20.1", fillcolor="#f6d5bd"] ;
258 -> 260 ;
261 [label="DIS <= 2.793\nsquared_error = 16.649\nsamples = 3\nvalue = 30.733", fillcolor="#f0b78e"] ;
257 -> 261 ;
262 [label="squared_error = 0.0\nsamples = 1\nvalue = 36.2", fillcolor="#eda876"] ;
261 -> 262 ;
263 [label="B <= 389.055\nsquared_error = 2.56\nsamples = 2\nvalue = 28.0", fillcolor="#f2bf9a"] ;
261 -> 263 ;
264 [label="squared_error = 0.0\nsamples = 1\nvalue = 29.6", fillcolor="#f1ba93"] ;
263 -> 264 ;
265 [label="squared_error = -0.0\nsamples = 1\nvalue = 26.4", fillcolor="#f3c3a1"] ;
263 -> 265 ;
266 [label="B <= 162.78\nsquared_error = 6.099\nsamples = 103\nvalue = 20.551", fillcolor="#f6d3bb"] ;
256 -> 266 ;
267 [label="B <= 58.385\nsquared_error = 6.76\nsamples = 2\nvalue = 13.5", fillcolor="#fae7da"] ;
266 -> 267 ;
268 [label="squared_error = 0.0\nsamples = 1\nvalue = 10.9", fillcolor="#fceee5"] ;
267 -> 268 ;
269 [label="squared_error = 0.0\nsamples = 1\nvalue = 16.1", fillcolor="#f9e0ce"] ;
267 -> 269 ;
270 [label="LSTAT <= 10.16\nsquared_error = 5.082\nsamples = 101\nvalue = 20.691", fillcolor="#f6d3ba"] ;
266 -> 270 ;
271 [label="RM <= 5.957\nsquared_error = 3.764\nsamples = 27\nvalue = 21.981", fillcolor="#f5cfb4"] ;
270 -> 271 ;
272 [label="DIS <= 3.031\nsquared_error = 1.122\nsamples = 9\nvalue = 20.267", fillcolor="#f6d4bc"] ;
271 -> 272 ;
273 [label="squared_error = 0.0\nsamples = 1\nvalue = 22.6", fillcolor="#f5ceb2"] ;
272 -> 273 ;
274 [label="LSTAT <= 9.465\nsquared_error = 0.497\nsamples = 8\nvalue = 19.975", fillcolor="#f6d5bd"] ;
272 -> 274 ;
275 [label="RAD <= 6.5\nsquared_error = 0.23\nsamples = 5\nvalue = 20.42", fillcolor="#f6d4bb"] ;
274 -> 275 ;
276 [label="AGE <= 34.8\nsquared_error = 0.077\nsamples = 4\nvalue = 20.625", fillcolor="#f6d3ba"] ;
275 -> 276 ;
277 [label="squared_error = 0.0\nsamples = 2\nvalue = 20.9", fillcolor="#f6d2b9"] ;
276 -> 277 ;
278 [label="B <= 396.48\nsquared_error = 0.002\nsamples = 2\nvalue = 20.35", fillcolor="#f6d4bb"] ;
276 -> 278 ;
279 [label="squared_error = 0.0\nsamples = 1\nvalue = 20.3", fillcolor="#f6d4bc"] ;
278 -> 279 ;
280 [label="squared_error = -0.0\nsamples = 1\nvalue = 20.4", fillcolor="#f6d4bb"] ;
278 -> 280 ;
281 [label="squared_error = 0.0\nsamples = 1\nvalue = 19.6", fillcolor="#f7d6bf"] ;
275 -> 281 ;
282 [label="DIS <= 4.287\nsquared_error = 0.062\nsamples = 3\nvalue = 19.233", fillcolor="#f7d7c0"] ;
274 -> 282 ;
283 [label="squared_error = 0.0\nsamples = 1\nvalue = 18.9", fillcolor="#f7d8c2"] ;
282 -> 283 ;
284 [label="B <= 389.67\nsquared_error = 0.01\nsamples = 2\nvalue = 19.4", fillcolor="#f7d7c0"] ;
282 -> 284 ;
285 [label="squared_error = 0.0\nsamples = 1\nvalue = 19.3", fillcolor="#f7d7c0"] ;
284 -> 285 ;
286 [label="squared_error = 0.0\nsamples = 1\nvalue = 19.5", fillcolor="#f7d6bf"] ;
284 -> 286 ;
287 [label="TAX <= 245.0\nsquared_error = 2.879\nsamples = 18\nvalue = 22.839", fillcolor="#f5cdb1"] ;
271 -> 287 ;
288 [label="LSTAT <= 8.47\nsquared_error = 2.038\nsamples = 5\nvalue = 20.94", fillcolor="#f6d2b9"] ;
287 -> 288 ;
289 [label="squared_error = 0.0\nsamples = 1\nvalue = 23.4", fillcolor="#f4cbae"] ;
288 -> 289 ;
290 [label="B <= 396.52\nsquared_error = 0.657\nsamples = 4\nvalue = 20.325", fillcolor="#f6d4bc"] ;
288 -> 290 ;
291 [label="CRIM <= 0.083\nsquared_error = 0.096\nsamples = 3\nvalue = 20.767", fillcolor="#f6d3ba"] ;
290 -> 291 ;
292 [label="INDUS <= 5.415\nsquared_error = 0.003\nsamples = 2\nvalue = 20.55", fillcolor="#f6d3bb"] ;
291 -> 292 ;
293 [label="squared_error = 0.0\nsamples = 1\nvalue = 20.6", fillcolor="#f6d3ba"] ;
292 -> 293 ;
294 [label="squared_error = 0.0\nsamples = 1\nvalue = 20.5", fillcolor="#f6d4bb"] ;
292 -> 294 ;
295 [label="squared_error = -0.0\nsamples = 1\nvalue = 21.2", fillcolor="#f6d2b8"] ;
291 -> 295 ;
296 [label="squared_error = 0.0\nsamples = 1\nvalue = 19.0", fillcolor="#f7d8c1"] ;
290 -> 296 ;
297 [label="CRIM <= 0.118\nsquared_error = 1.282\nsamples = 13\nvalue = 23.569", fillcolor="#f4cbad"] ;
287 -> 297 ;
298 [label="DIS <= 6.404\nsquared_error = 0.882\nsamples = 8\nvalue = 22.925", fillcolor="#f5cdb0"] ;
297 -> 298 ;
299 [label="B <= 396.325\nsquared_error = 0.434\nsamples = 7\nvalue = 22.657", fillcolor="#f5ceb1"] ;
298 -> 299 ;
300 [label="RM <= 6.07\nsquared_error = 0.206\nsamples = 6\nvalue = 22.45", fillcolor="#f5ceb2"] ;
299 -> 300 ;
301 [label="squared_error = 0.0\nsamples = 1\nvalue = 23.2", fillcolor="#f4ccaf"] ;
300 -> 301 ;
302 [label="INDUS <= 13.485\nsquared_error = 0.112\nsamples = 5\nvalue = 22.3", fillcolor="#f5cfb3"] ;
300 -> 302 ;
303 [label="PTRATIO <= 18.15\nsquared_error = 0.028\nsamples = 4\nvalue = 22.15", fillcolor="#f5cfb4"] ;
302 -> 303 ;
304 [label="squared_error = 0.0\nsamples = 2\nvalue = 22.0", fillcolor="#f5cfb4"] ;
303 -> 304 ;
305 [label="AGE <= 62.95\nsquared_error = 0.01\nsamples = 2\nvalue = 22.3", fillcolor="#f5cfb3"] ;
303 -> 305 ;
306 [label="squared_error = 0.0\nsamples = 1\nvalue = 22.2", fillcolor="#f5cfb3"] ;
305 -> 306 ;
307 [label="squared_error = 0.0\nsamples = 1\nvalue = 22.4", fillcolor="#f5ceb2"] ;
305 -> 307 ;
308 [label="squared_error = -0.0\nsamples = 1\nvalue = 22.9", fillcolor="#f5cdb0"] ;
302 -> 308 ;
309 [label="squared_error = -0.0\nsamples = 1\nvalue = 23.9", fillcolor="#f4caac"] ;
299 -> 309 ;
310 [label="squared_error = 0.0\nsamples = 1\nvalue = 24.8", fillcolor="#f4c8a8"] ;
298 -> 310 ;
311 [label="LSTAT <= 9.375\nsquared_error = 0.196\nsamples = 5\nvalue = 24.6", fillcolor="#f4c8a9"] ;
297 -> 311 ;
312 [label="squared_error = 0.0\nsamples = 1\nvalue = 23.8", fillcolor="#f4caac"] ;
311 -> 312 ;
313 [label="INDUS <= 8.275\nsquared_error = 0.045\nsamples = 4\nvalue = 24.8", fillcolor="#f4c8a8"] ;
311 -> 313 ;
314 [label="CRIM <= 0.17\nsquared_error = 0.01\nsamples = 2\nvalue = 24.6", fillcolor="#f4c8a9"] ;
313 -> 314 ;
315 [label="squared_error = 0.0\nsamples = 1\nvalue = 24.5", fillcolor="#f4c8a9"] ;
314 -> 315 ;
316 [label="squared_error = -0.0\nsamples = 1\nvalue = 24.7", fillcolor="#f4c8a8"] ;
314 -> 316 ;
317 [label="AGE <= 67.7\nsquared_error = 0.0\nsamples = 2\nvalue = 25.0", fillcolor="#f3c7a7"] ;
313 -> 317 ;
318 [label="squared_error = 0.0\nsamples = 1\nvalue = 25.0", fillcolor="#f3c7a7"] ;
317 -> 318 ;
319 [label="squared_error = 0.0\nsamples = 1\nvalue = 25.0", fillcolor="#f3c7a7"] ;
317 -> 319 ;
320 [label="PTRATIO <= 20.95\nsquared_error = 4.733\nsamples = 74\nvalue = 20.22", fillcolor="#f6d4bc"] ;
270 -> 320 ;
321 [label="DIS <= 5.559\nsquared_error = 4.28\nsamples = 65\nvalue = 20.522", fillcolor="#f6d4bb"] ;
320 -> 321 ;
322 [label="RM <= 5.187\nsquared_error = 3.812\nsamples = 56\nvalue = 20.834", fillcolor="#f6d3b9"] ;
321 -> 322 ;
323 [label="squared_error = 0.0\nsamples = 1\nvalue = 15.3", fillcolor="#f9e2d2"] ;
322 -> 323 ;
324 [label="PTRATIO <= 17.6\nsquared_error = 3.314\nsamples = 55\nvalue = 20.935", fillcolor="#f6d2b9"] ;
322 -> 324 ;
325 [label="AGE <= 93.2\nsquared_error = 3.461\nsamples = 12\nvalue = 22.167", fillcolor="#f5cfb3"] ;
324 -> 325 ;
326 [label="AGE <= 49.15\nsquared_error = 0.505\nsamples = 7\nvalue = 23.057", fillcolor="#f5ccb0"] ;
325 -> 326 ;
327 [label="squared_error = 0.0\nsamples = 1\nvalue = 21.7", fillcolor="#f5d0b6"] ;
326 -> 327 ;
328 [label="B <= 384.575\nsquared_error = 0.231\nsamples = 6\nvalue = 23.283", fillcolor="#f4ccaf"] ;
326 -> 328 ;
329 [label="RM <= 5.981\nsquared_error = 0.01\nsamples = 2\nvalue = 23.9", fillcolor="#f4caac"] ;
328 -> 329 ;
330 [label="squared_error = 0.0\nsamples = 1\nvalue = 23.8", fillcolor="#f4caac"] ;
329 -> 330 ;
331 [label="squared_error = 0.0\nsamples = 1\nvalue = 24.0", fillcolor="#f4caab"] ;
329 -> 331 ;
332 [label="PTRATIO <= 15.55\nsquared_error = 0.057\nsamples = 4\nvalue = 22.975", fillcolor="#f5cdb0"] ;
328 -> 332 ;
333 [label="PTRATIO <= 13.85\nsquared_error = 0.003\nsamples = 2\nvalue = 22.75", fillcolor="#f5cdb1"] ;
332 -> 333 ;
334 [label="squared_error = 0.0\nsamples = 1\nvalue = 22.8", fillcolor="#f5cdb1"] ;
333 -> 334 ;
335 [label="squared_error = 0.0\nsamples = 1\nvalue = 22.7", fillcolor="#f5cdb1"] ;
333 -> 335 ;
336 [label="TAX <= 286.0\nsquared_error = 0.01\nsamples = 2\nvalue = 23.2", fillcolor="#f4ccaf"] ;
332 -> 336 ;
337 [label="squared_error = 0.0\nsamples = 1\nvalue = 23.3", fillcolor="#f4ccae"] ;
336 -> 337 ;
338 [label="squared_error = -0.0\nsamples = 1\nvalue = 23.1", fillcolor="#f5ccaf"] ;
336 -> 338 ;
339 [label="CRIM <= 1.576\nsquared_error = 4.934\nsamples = 5\nvalue = 20.92", fillcolor="#f6d2b9"] ;
325 -> 339 ;
340 [label="LSTAT <= 13.855\nsquared_error = 1.21\nsamples = 2\nvalue = 18.5", fillcolor="#f7d9c4"] ;
339 -> 340 ;
341 [label="squared_error = 0.0\nsamples = 1\nvalue = 19.6", fillcolor="#f7d6bf"] ;
340 -> 341 ;
342 [label="squared_error = 0.0\nsamples = 1\nvalue = 17.4", fillcolor="#f8dcc8"] ;
340 -> 342 ;
343 [label="LSTAT <= 11.21\nsquared_error = 0.909\nsamples = 3\nvalue = 22.533", fillcolor="#f5ceb2"] ;
339 -> 343 ;
344 [label="squared_error = 0.0\nsamples = 1\nvalue = 23.8", fillcolor="#f4caac"] ;
343 -> 344 ;
345 [label="LSTAT <= 12.71\nsquared_error = 0.16\nsamples = 2\nvalue = 21.9", fillcolor="#f5d0b5"] ;
343 -> 345 ;
346 [label="squared_error = 0.0\nsamples = 1\nvalue = 22.3", fillcolor="#f5cfb3"] ;
345 -> 346 ;
347 [label="squared_error = 0.0\nsamples = 1\nvalue = 21.5", fillcolor="#f5d1b6"] ;
345 -> 347 ;
348 [label="AGE <= 76.15\nsquared_error = 2.731\nsamples = 43\nvalue = 20.591", fillcolor="#f6d3ba"] ;
324 -> 348 ;
349 [label="B <= 392.21\nsquared_error = 1.852\nsamples = 20\nvalue = 21.375", fillcolor="#f6d1b7"] ;
348 -> 349 ;
350 [label="RM <= 5.849\nsquared_error = 0.921\nsamples = 10\nvalue = 20.41", fillcolor="#f6d4bb"] ;
349 -> 350 ;
351 [label="DIS <= 4.049\nsquared_error = 0.357\nsamples = 4\nvalue = 19.425", fillcolor="#f7d7c0"] ;
350 -> 351 ;
352 [label="PTRATIO <= 18.5\nsquared_error = 0.096\nsamples = 3\nvalue = 19.733", fillcolor="#f6d6be"] ;
351 -> 352 ;
353 [label="squared_error = 0.0\nsamples = 1\nvalue = 19.3", fillcolor="#f7d7c0"] ;
352 -> 353 ;
354 [label="LSTAT <= 12.77\nsquared_error = 0.002\nsamples = 2\nvalue = 19.95", fillcolor="#f6d5bd"] ;
352 -> 354 ;
355 [label="squared_error = 0.0\nsamples = 1\nvalue = 20.0", fillcolor="#f6d5bd"] ;
354 -> 355 ;
356 [label="squared_error = 0.0\nsamples = 1\nvalue = 19.9", fillcolor="#f6d5bd"] ;
354 -> 356 ;
357 [label="squared_error = 0.0\nsamples = 1\nvalue = 18.5", fillcolor="#f7d9c4"] ;
351 -> 357 ;
358 [label="CRIM <= 0.078\nsquared_error = 0.219\nsamples = 6\nvalue = 21.067", fillcolor="#f6d2b8"] ;
350 -> 358 ;
359 [label="squared_error = 0.0\nsamples = 1\nvalue = 22.0", fillcolor="#f5cfb4"] ;
358 -> 359 ;
360 [label="LSTAT <= 13.17\nsquared_error = 0.054\nsamples = 5\nvalue = 20.88", fillcolor="#f6d3b9"] ;
358 -> 360 ;
361 [label="LSTAT <= 10.425\nsquared_error = 0.029\nsamples = 3\nvalue = 21.033", fillcolor="#f6d2b8"] ;
360 -> 361 ;
362 [label="squared_error = 0.0\nsamples = 1\nvalue = 20.8", fillcolor="#f6d3b9"] ;
361 -> 362 ;
363 [label="NOX <= 0.523\nsquared_error = 0.002\nsamples = 2\nvalue = 21.15", fillcolor="#f6d2b8"] ;
361 -> 363 ;
364 [label="squared_error = 0.0\nsamples = 1\nvalue = 21.1", fillcolor="#f6d2b8"] ;
363 -> 364 ;
365 [label="squared_error = 0.0\nsamples = 1\nvalue = 21.2", fillcolor="#f6d2b8"] ;
363 -> 365 ;
366 [label="NOX <= 0.523\nsquared_error = 0.003\nsamples = 2\nvalue = 20.65", fillcolor="#f6d3ba"] ;
360 -> 366 ;
367 [label="squared_error = 0.0\nsamples = 1\nvalue = 20.7", fillcolor="#f6d3ba"] ;
366 -> 367 ;
368 [label="squared_error = 0.0\nsamples = 1\nvalue = 20.6", fillcolor="#f6d3ba"] ;
366 -> 368 ;
369 [label="LSTAT <= 13.405\nsquared_error = 0.92\nsamples = 10\nvalue = 22.34", fillcolor="#f5ceb3"] ;
349 -> 369 ;
370 [label="TAX <= 344.0\nsquared_error = 0.332\nsamples = 8\nvalue = 21.962", fillcolor="#f5d0b4"] ;
369 -> 370 ;
371 [label="RM <= 6.233\nsquared_error = 0.14\nsamples = 3\nvalue = 22.6", fillcolor="#f5ceb2"] ;
370 -> 371 ;
372 [label="INDUS <= 5.935\nsquared_error = 0.023\nsamples = 2\nvalue = 22.35", fillcolor="#f5ceb3"] ;
371 -> 372 ;
373 [label="squared_error = 0.0\nsamples = 1\nvalue = 22.5", fillcolor="#f5ceb2"] ;
372 -> 373 ;
374 [label="squared_error = -0.0\nsamples = 1\nvalue = 22.2", fillcolor="#f5cfb3"] ;
372 -> 374 ;
375 [label="squared_error = 0.0\nsamples = 1\nvalue = 23.1", fillcolor="#f5ccaf"] ;
371 -> 375 ;
376 [label="AGE <= 59.9\nsquared_error = 0.058\nsamples = 5\nvalue = 21.58", fillcolor="#f5d1b6"] ;
370 -> 376 ;
377 [label="RM <= 5.979\nsquared_error = 0.002\nsamples = 3\nvalue = 21.767", fillcolor="#f5d0b5"] ;
376 -> 377 ;
378 [label="CRIM <= 1.496\nsquared_error = 0.0\nsamples = 2\nvalue = 21.8", fillcolor="#f5d0b5"] ;
377 -> 378 ;
379 [label="squared_error = 0.0\nsamples = 1\nvalue = 21.8", fillcolor="#f5d0b5"] ;
378 -> 379 ;
380 [label="squared_error = 0.0\nsamples = 1\nvalue = 21.8", fillcolor="#f5d0b5"] ;
378 -> 380 ;
381 [label="squared_error = -0.0\nsamples = 1\nvalue = 21.7", fillcolor="#f5d0b6"] ;
377 -> 381 ;
382 [label="B <= 395.1\nsquared_error = 0.01\nsamples = 2\nvalue = 21.3", fillcolor="#f6d1b7"] ;
376 -> 382 ;
383 [label="squared_error = 0.0\nsamples = 1\nvalue = 21.2", fillcolor="#f6d2b8"] ;
382 -> 383 ;
384 [label="squared_error = 0.0\nsamples = 1\nvalue = 21.4", fillcolor="#f6d1b7"] ;
382 -> 384 ;
385 [label="AGE <= 58.8\nsquared_error = 0.423\nsamples = 2\nvalue = 23.85", fillcolor="#f4caac"] ;
369 -> 385 ;
386 [label="squared_error = 0.0\nsamples = 1\nvalue = 24.5", fillcolor="#f4c8a9"] ;
385 -> 386 ;
387 [label="squared_error = -0.0\nsamples = 1\nvalue = 23.2", fillcolor="#f4ccaf"] ;
385 -> 387 ;
388 [label="INDUS <= 12.525\nsquared_error = 2.496\nsamples = 23\nvalue = 19.909", fillcolor="#f6d5bd"] ;
348 -> 388 ;
389 [label="B <= 396.36\nsquared_error = 1.811\nsamples = 7\nvalue = 18.5", fillcolor="#f7d9c4"] ;
388 -> 389 ;
390 [label="CRIM <= 0.141\nsquared_error = 0.26\nsamples = 5\nvalue = 19.3", fillcolor="#f7d7c0"] ;
389 -> 390 ;
391 [label="squared_error = 0.0\nsamples = 1\nvalue = 20.1", fillcolor="#f6d5bd"] ;
390 -> 391 ;
392 [label="CRIM <= 0.147\nsquared_error = 0.125\nsamples = 4\nvalue = 19.1", fillcolor="#f7d8c1"] ;
390 -> 392 ;
393 [label="squared_error = 0.0\nsamples = 1\nvalue = 18.5", fillcolor="#f7d9c4"] ;
392 -> 393 ;
394 [label="CRIM <= 0.181\nsquared_error = 0.007\nsamples = 3\nvalue = 19.3", fillcolor="#f7d7c0"] ;
392 -> 394 ;
395 [label="squared_error = 0.0\nsamples = 1\nvalue = 19.2", fillcolor="#f7d7c1"] ;
394 -> 395 ;
396 [label="RM <= 6.08\nsquared_error = 0.002\nsamples = 2\nvalue = 19.35", fillcolor="#f7d7c0"] ;
394 -> 396 ;
397 [label="squared_error = 0.0\nsamples = 1\nvalue = 19.4", fillcolor="#f7d7c0"] ;
396 -> 397 ;
398 [label="squared_error = -0.0\nsamples = 1\nvalue = 19.3", fillcolor="#f7d7c0"] ;
396 -> 398 ;
399 [label="RM <= 5.866\nsquared_error = 0.09\nsamples = 2\nvalue = 16.5", fillcolor="#f8dfcc"] ;
389 -> 399 ;
400 [label="squared_error = 0.0\nsamples = 1\nvalue = 16.2", fillcolor="#f9e0ce"] ;
399 -> 400 ;
401 [label="squared_error = 0.0\nsamples = 1\nvalue = 16.8", fillcolor="#f8decb"] ;
399 -> 401 ;
402 [label="NOX <= 0.741\nsquared_error = 1.547\nsamples = 16\nvalue = 20.525", fillcolor="#f6d4bb"] ;
388 -> 402 ;
403 [label="DIS <= 2.051\nsquared_error = 1.048\nsamples = 11\nvalue = 20.064", fillcolor="#f6d5bd"] ;
402 -> 403 ;
404 [label="B <= 337.435\nsquared_error = 0.08\nsamples = 3\nvalue = 21.2", fillcolor="#f6d2b8"] ;
403 -> 404 ;
405 [label="squared_error = 0.0\nsamples = 1\nvalue = 20.8", fillcolor="#f6d3b9"] ;
404 -> 405 ;
406 [label="squared_error = 0.0\nsamples = 2\nvalue = 21.4", fillcolor="#f6d1b7"] ;
404 -> 406 ;
407 [label="LSTAT <= 14.46\nsquared_error = 0.745\nsamples = 8\nvalue = 19.638", fillcolor="#f7d6bf"] ;
403 -> 407 ;
408 [label="RAD <= 14.0\nsquared_error = 0.149\nsamples = 6\nvalue = 20.05", fillcolor="#f6d5bd"] ;
407 -> 408 ;
409 [label="INDUS <= 20.345\nsquared_error = 0.042\nsamples = 3\nvalue = 20.333", fillcolor="#f6d4bc"] ;
408 -> 409 ;
410 [label="squared_error = 0.0\nsamples = 1\nvalue = 20.6", fillcolor="#f6d3ba"] ;
409 -> 410 ;
411 [label="TAX <= 449.5\nsquared_error = 0.01\nsamples = 2\nvalue = 20.2", fillcolor="#f6d4bc"] ;
409 -> 411 ;
412 [label="squared_error = 0.0\nsamples = 1\nvalue = 20.3", fillcolor="#f6d4bc"] ;
411 -> 412 ;
413 [label="squared_error = -0.0\nsamples = 1\nvalue = 20.1", fillcolor="#f6d5bd"] ;
411 -> 413 ;
414 [label="RM <= 6.415\nsquared_error = 0.096\nsamples = 3\nvalue = 19.767", fillcolor="#f6d6be"] ;
408 -> 414 ;
415 [label="RM <= 6.273\nsquared_error = 0.002\nsamples = 2\nvalue = 19.55", fillcolor="#f7d6bf"] ;
414 -> 415 ;
416 [label="squared_error = 0.0\nsamples = 1\nvalue = 19.6", fillcolor="#f7d6bf"] ;
415 -> 416 ;
417 [label="squared_error = 0.0\nsamples = 1\nvalue = 19.5", fillcolor="#f7d6bf"] ;
415 -> 417 ;
418 [label="squared_error = 0.0\nsamples = 1\nvalue = 20.2", fillcolor="#f6d4bc"] ;
414 -> 418 ;
419 [label="LSTAT <= 14.815\nsquared_error = 0.49\nsamples = 2\nvalue = 18.4", fillcolor="#f7d9c4"] ;
407 -> 419 ;
420 [label="squared_error = 0.0\nsamples = 1\nvalue = 17.7", fillcolor="#f8dbc7"] ;
419 -> 420 ;
421 [label="squared_error = 0.0\nsamples = 1\nvalue = 19.1", fillcolor="#f7d8c1"] ;
419 -> 421 ;
422 [label="CRIM <= 3.843\nsquared_error = 1.146\nsamples = 5\nvalue = 21.54", fillcolor="#f5d1b6"] ;
402 -> 422 ;
423 [label="AGE <= 93.65\nsquared_error = 0.202\nsamples = 2\nvalue = 20.35", fillcolor="#f6d4bb"] ;
422 -> 423 ;
424 [label="squared_error = 0.0\nsamples = 1\nvalue = 19.9", fillcolor="#f6d5bd"] ;
423 -> 424 ;
425 [label="squared_error = -0.0\nsamples = 1\nvalue = 20.8", fillcolor="#f6d3b9"] ;
423 -> 425 ;
426 [label="CRIM <= 4.056\nsquared_error = 0.202\nsamples = 3\nvalue = 22.333", fillcolor="#f5ceb3"] ;
422 -> 426 ;
427 [label="squared_error = 0.0\nsamples = 1\nvalue = 21.7", fillcolor="#f5d0b6"] ;
426 -> 427 ;
428 [label="CHAS <= 0.5\nsquared_error = 0.003\nsamples = 2\nvalue = 22.65", fillcolor="#f5ceb1"] ;
426 -> 428 ;
429 [label="squared_error = 0.0\nsamples = 1\nvalue = 22.6", fillcolor="#f5ceb2"] ;
428 -> 429 ;
430 [label="squared_error = 0.0\nsamples = 1\nvalue = 22.7", fillcolor="#f5cdb1"] ;
428 -> 430 ;
431 [label="PTRATIO <= 17.8\nsquared_error = 2.813\nsamples = 9\nvalue = 18.578", fillcolor="#f7d9c3"] ;
321 -> 431 ;
432 [label="B <= 384.155\nsquared_error = 1.623\nsamples = 4\nvalue = 20.05", fillcolor="#f6d5bd"] ;
431 -> 432 ;
433 [label="squared_error = 0.0\nsamples = 1\nvalue = 22.2", fillcolor="#f5cfb3"] ;
432 -> 433 ;
434 [label="INDUS <= 6.755\nsquared_error = 0.109\nsamples = 3\nvalue = 19.333", fillcolor="#f7d7c0"] ;
432 -> 434 ;
435 [label="CRIM <= 0.066\nsquared_error = 0.023\nsamples = 2\nvalue = 19.55", fillcolor="#f7d6bf"] ;
434 -> 435 ;
436 [label="squared_error = 0.0\nsamples = 1\nvalue = 19.4", fillcolor="#f7d7c0"] ;
435 -> 436 ;
437 [label="squared_error = 0.0\nsamples = 1\nvalue = 19.7", fillcolor="#f7d6be"] ;
435 -> 437 ;
438 [label="squared_error = 0.0\nsamples = 1\nvalue = 18.9", fillcolor="#f7d8c2"] ;
434 -> 438 ;
439 [label="LSTAT <= 13.765\nsquared_error = 0.644\nsamples = 5\nvalue = 17.4", fillcolor="#f8dcc8"] ;
431 -> 439 ;
440 [label="NOX <= 0.478\nsquared_error = 0.192\nsamples = 4\nvalue = 17.75", fillcolor="#f8dbc7"] ;
439 -> 440 ;
441 [label="PTRATIO <= 19.0\nsquared_error = 0.007\nsamples = 3\nvalue = 17.5", fillcolor="#f8dcc8"] ;
440 -> 441 ;
442 [label="PTRATIO <= 18.85\nsquared_error = 0.002\nsamples = 2\nvalue = 17.45", fillcolor="#f8dcc8"] ;
441 -> 442 ;
443 [label="squared_error = 0.0\nsamples = 1\nvalue = 17.5", fillcolor="#f8dcc8"] ;
442 -> 443 ;
444 [label="squared_error = 0.0\nsamples = 1\nvalue = 17.4", fillcolor="#f8dcc8"] ;
442 -> 444 ;
445 [label="squared_error = -0.0\nsamples = 1\nvalue = 17.6", fillcolor="#f8dcc8"] ;
441 -> 445 ;
446 [label="squared_error = 0.0\nsamples = 1\nvalue = 18.5", fillcolor="#f7d9c4"] ;
440 -> 446 ;
447 [label="squared_error = 0.0\nsamples = 1\nvalue = 16.0", fillcolor="#f9e0cf"] ;
439 -> 447 ;
448 [label="LSTAT <= 12.92\nsquared_error = 2.614\nsamples = 9\nvalue = 18.044", fillcolor="#f7dac6"] ;
320 -> 448 ;
449 [label="CRIM <= 0.788\nsquared_error = 0.579\nsamples = 6\nvalue = 18.967", fillcolor="#f7d8c2"] ;
448 -> 449 ;
450 [label="CRIM <= 0.489\nsquared_error = 0.17\nsamples = 4\nvalue = 18.5", fillcolor="#f7d9c4"] ;
449 -> 450 ;
451 [label="squared_error = 0.0\nsamples = 1\nvalue = 19.2", fillcolor="#f7d7c1"] ;
450 -> 451 ;
452 [label="CRIM <= 0.749\nsquared_error = 0.009\nsamples = 3\nvalue = 18.267", fillcolor="#f7dac5"] ;
450 -> 452 ;
453 [label="squared_error = 0.0\nsamples = 2\nvalue = 18.2", fillcolor="#f7dac5"] ;
452 -> 453 ;
454 [label="squared_error = 0.0\nsamples = 1\nvalue = 18.4", fillcolor="#f7d9c4"] ;
452 -> 454 ;
455 [label="DIS <= 3.034\nsquared_error = 0.09\nsamples = 2\nvalue = 19.9", fillcolor="#f6d5bd"] ;
449 -> 455 ;
456 [label="squared_error = 0.0\nsamples = 1\nvalue = 19.6", fillcolor="#f7d6bf"] ;
455 -> 456 ;
457 [label="squared_error = 0.0\nsamples = 1\nvalue = 20.2", fillcolor="#f6d4bc"] ;
455 -> 457 ;
458 [label="LSTAT <= 13.855\nsquared_error = 1.58\nsamples = 3\nvalue = 16.2", fillcolor="#f9e0ce"] ;
448 -> 458 ;
459 [label="squared_error = 0.0\nsamples = 1\nvalue = 14.5", fillcolor="#fae4d5"] ;
458 -> 459 ;
460 [label="CRIM <= 0.728\nsquared_error = 0.202\nsamples = 2\nvalue = 17.05", fillcolor="#f8ddca"] ;
458 -> 460 ;
461 [label="squared_error = 0.0\nsamples = 1\nvalue = 16.6", fillcolor="#f8dfcc"] ;
460 -> 461 ;
462 [label="squared_error = 0.0\nsamples = 1\nvalue = 17.5", fillcolor="#f8dcc8"] ;
460 -> 462 ;
463 [label="DIS <= 1.698\nsquared_error = 23.441\nsamples = 13\nvalue = 26.854", fillcolor="#f2c29f"] ;
255 -> 463 ;
464 [label="squared_error = 0.0\nsamples = 1\nvalue = 15.0", fillcolor="#f9e3d3"] ;
463 -> 464 ;
465 [label="RM <= 6.93\nsquared_error = 12.709\nsamples = 12\nvalue = 27.842", fillcolor="#f2bf9a"] ;
463 -> 465 ;
466 [label="LSTAT <= 10.045\nsquared_error = 7.229\nsamples = 7\nvalue = 25.5", fillcolor="#f3c6a5"] ;
465 -> 466 ;
467 [label="DIS <= 3.785\nsquared_error = 2.538\nsamples = 5\nvalue = 26.94", fillcolor="#f2c29e"] ;
466 -> 467 ;
468 [label="RM <= 6.761\nsquared_error = 0.26\nsamples = 3\nvalue = 28.2", fillcolor="#f2be99"] ;
467 -> 468 ;
469 [label="RM <= 6.629\nsquared_error = 0.023\nsamples = 2\nvalue = 28.55", fillcolor="#f1bd97"] ;
468 -> 469 ;
470 [label="squared_error = 0.0\nsamples = 1\nvalue = 28.4", fillcolor="#f1bd98"] ;
469 -> 470 ;
471 [label="squared_error = 0.0\nsamples = 1\nvalue = 28.7", fillcolor="#f1bd97"] ;
469 -> 471 ;
472 [label="squared_error = 0.0\nsamples = 1\nvalue = 27.5", fillcolor="#f2c09c"] ;
468 -> 472 ;
473 [label="B <= 392.015\nsquared_error = 0.003\nsamples = 2\nvalue = 25.05", fillcolor="#f3c7a7"] ;
467 -> 473 ;
474 [label="squared_error = 0.0\nsamples = 1\nvalue = 25.1", fillcolor="#f3c7a7"] ;
473 -> 474 ;
475 [label="squared_error = 0.0\nsamples = 1\nvalue = 25.0", fillcolor="#f3c7a7"] ;
473 -> 475 ;
476 [label="RAD <= 5.0\nsquared_error = 0.81\nsamples = 2\nvalue = 21.9", fillcolor="#f5d0b5"] ;
466 -> 476 ;
477 [label="squared_error = 0.0\nsamples = 1\nvalue = 21.0", fillcolor="#f6d2b9"] ;
476 -> 477 ;
478 [label="squared_error = 0.0\nsamples = 1\nvalue = 22.8", fillcolor="#f5cdb1"] ;
476 -> 478 ;
479 [label="DIS <= 2.122\nsquared_error = 1.958\nsamples = 5\nvalue = 31.12", fillcolor="#f0b68c"] ;
465 -> 479 ;
480 [label="B <= 393.11\nsquared_error = 1.96\nsamples = 2\nvalue = 32.4", fillcolor="#efb286"] ;
479 -> 480 ;
481 [label="squared_error = 0.0\nsamples = 1\nvalue = 33.8", fillcolor="#eeae80"] ;
480 -> 481 ;
482 [label="squared_error = -0.0\nsamples = 1\nvalue = 31.0", fillcolor="#f0b68d"] ;
480 -> 482 ;
483 [label="INDUS <= 11.035\nsquared_error = 0.136\nsamples = 3\nvalue = 30.267", fillcolor="#f0b890"] ;
479 -> 483 ;
484 [label="CRIM <= 0.416\nsquared_error = 0.04\nsamples = 2\nvalue = 30.5", fillcolor="#f0b88f"] ;
483 -> 484 ;
485 [label="squared_error = 0.0\nsamples = 1\nvalue = 30.3", fillcolor="#f0b890"] ;
484 -> 485 ;
486 [label="squared_error = -0.0\nsamples = 1\nvalue = 30.7", fillcolor="#f0b78e"] ;
484 -> 486 ;
487 [label="squared_error = 0.0\nsamples = 1\nvalue = 29.8", fillcolor="#f1ba92"] ;
483 -> 487 ;
488 [label="CRIM <= 5.769\nsquared_error = 15.957\nsamples = 123\nvalue = 14.326", fillcolor="#fae5d6"] ;
254 -> 488 ;
489 [label="NOX <= 0.531\nsquared_error = 10.109\nsamples = 64\nvalue = 16.58", fillcolor="#f8dfcc"] ;
488 -> 489 ;
490 [label="TAX <= 255.0\nsquared_error = 5.794\nsamples = 13\nvalue = 19.723", fillcolor="#f6d6be"] ;
489 -> 490 ;
491 [label="RM <= 5.715\nsquared_error = 1.21\nsamples = 2\nvalue = 15.5", fillcolor="#f9e2d1"] ;
490 -> 491 ;
492 [label="squared_error = 0.0\nsamples = 1\nvalue = 14.4", fillcolor="#fae5d6"] ;
491 -> 492 ;
493 [label="squared_error = 0.0\nsamples = 1\nvalue = 16.6", fillcolor="#f8dfcc"] ;
491 -> 493 ;
494 [label="TAX <= 309.0\nsquared_error = 2.795\nsamples = 11\nvalue = 20.491", fillcolor="#f6d4bb"] ;
490 -> 494 ;
495 [label="RM <= 5.408\nsquared_error = 2.287\nsamples = 6\nvalue = 21.6", fillcolor="#f5d1b6"] ;
494 -> 495 ;
496 [label="DIS <= 3.77\nsquared_error = 0.123\nsamples = 2\nvalue = 19.65", fillcolor="#f7d6bf"] ;
495 -> 496 ;
497 [label="squared_error = 0.0\nsamples = 1\nvalue = 19.3", fillcolor="#f7d7c0"] ;
496 -> 497 ;
498 [label="squared_error = 0.0\nsamples = 1\nvalue = 20.0", fillcolor="#f6d5bd"] ;
496 -> 498 ;
499 [label="LSTAT <= 25.505\nsquared_error = 0.517\nsamples = 4\nvalue = 22.575", fillcolor="#f5ceb2"] ;
495 -> 499 ;
500 [label="LSTAT <= 19.76\nsquared_error = 0.127\nsamples = 3\nvalue = 22.2", fillcolor="#f5cfb3"] ;
499 -> 500 ;
501 [label="CRIM <= 0.235\nsquared_error = 0.003\nsamples = 2\nvalue = 22.45", fillcolor="#f5ceb2"] ;
500 -> 501 ;
502 [label="squared_error = 0.0\nsamples = 1\nvalue = 22.4", fillcolor="#f5ceb2"] ;
501 -> 502 ;
503 [label="squared_error = 0.0\nsamples = 1\nvalue = 22.5", fillcolor="#f5ceb2"] ;
501 -> 503 ;
504 [label="squared_error = -0.0\nsamples = 1\nvalue = 21.7", fillcolor="#f5d0b6"] ;
500 -> 504 ;
505 [label="squared_error = 0.0\nsamples = 1\nvalue = 23.7", fillcolor="#f4cbad"] ;
499 -> 505 ;
506 [label="B <= 390.18\nsquared_error = 0.158\nsamples = 5\nvalue = 19.16", fillcolor="#f7d7c1"] ;
494 -> 506 ;
507 [label="RM <= 5.805\nsquared_error = 0.04\nsamples = 2\nvalue = 18.7", fillcolor="#f7d9c3"] ;
506 -> 507 ;
508 [label="squared_error = 0.0\nsamples = 1\nvalue = 18.5", fillcolor="#f7d9c4"] ;
507 -> 508 ;
509 [label="squared_error = 0.0\nsamples = 1\nvalue = 18.9", fillcolor="#f7d8c2"] ;
507 -> 509 ;
510 [label="RM <= 6.04\nsquared_error = 0.002\nsamples = 3\nvalue = 19.467", fillcolor="#f7d6bf"] ;
506 -> 510 ;
511 [label="squared_error = 0.0\nsamples = 2\nvalue = 19.5", fillcolor="#f7d6bf"] ;
510 -> 511 ;
512 [label="squared_error = -0.0\nsamples = 1\nvalue = 19.4", fillcolor="#f7d7c0"] ;
510 -> 512 ;
513 [label="TAX <= 688.5\nsquared_error = 8.048\nsamples = 51\nvalue = 15.778", fillcolor="#f9e1d0"] ;
489 -> 513 ;
514 [label="CRIM <= 0.654\nsquared_error = 5.564\nsamples = 47\nvalue = 16.187", fillcolor="#f9e0ce"] ;
513 -> 514 ;
515 [label="DIS <= 1.8\nsquared_error = 4.027\nsamples = 18\nvalue = 17.783", fillcolor="#f8dbc7"] ;
514 -> 515 ;
516 [label="DIS <= 1.669\nsquared_error = 2.572\nsamples = 5\nvalue = 15.4", fillcolor="#f9e2d1"] ;
515 -> 516 ;
517 [label="CRIM <= 0.27\nsquared_error = 0.122\nsamples = 2\nvalue = 13.65", fillcolor="#fae7d9"] ;
516 -> 517 ;
518 [label="squared_error = 0.0\nsamples = 1\nvalue = 13.3", fillcolor="#fae8da"] ;
517 -> 518 ;
519 [label="squared_error = -0.0\nsamples = 1\nvalue = 14.0", fillcolor="#fae6d7"] ;
517 -> 519 ;
520 [label="AGE <= 96.95\nsquared_error = 0.802\nsamples = 3\nvalue = 16.567", fillcolor="#f8dfcc"] ;
516 -> 520 ;
521 [label="LSTAT <= 22.225\nsquared_error = 0.062\nsamples = 2\nvalue = 15.95", fillcolor="#f9e0cf"] ;
520 -> 521 ;
522 [label="squared_error = 0.0\nsamples = 1\nvalue = 16.2", fillcolor="#f9e0ce"] ;
521 -> 522 ;
523 [label="squared_error = -0.0\nsamples = 1\nvalue = 15.7", fillcolor="#f9e1d0"] ;
521 -> 523 ;
524 [label="squared_error = 0.0\nsamples = 1\nvalue = 17.8", fillcolor="#f8dbc7"] ;
520 -> 524 ;
525 [label="CRIM <= 0.117\nsquared_error = 1.562\nsamples = 13\nvalue = 18.7", fillcolor="#f7d9c3"] ;
515 -> 525 ;
526 [label="INDUS <= 19.77\nsquared_error = 0.25\nsamples = 2\nvalue = 21.0", fillcolor="#f6d2b9"] ;
525 -> 526 ;
527 [label="squared_error = 0.0\nsamples = 1\nvalue = 21.5", fillcolor="#f5d1b6"] ;
526 -> 527 ;
528 [label="squared_error = 0.0\nsamples = 1\nvalue = 20.5", fillcolor="#f6d4bb"] ;
526 -> 528 ;
529 [label="AGE <= 73.2\nsquared_error = 0.663\nsamples = 11\nvalue = 18.282", fillcolor="#f7dac5"] ;
525 -> 529 ;
530 [label="TAX <= 347.5\nsquared_error = 0.002\nsamples = 2\nvalue = 19.75", fillcolor="#f6d6be"] ;
529 -> 530 ;
531 [label="squared_error = 0.0\nsamples = 1\nvalue = 19.8", fillcolor="#f6d6be"] ;
530 -> 531 ;
532 [label="squared_error = 0.0\nsamples = 1\nvalue = 19.7", fillcolor="#f7d6be"] ;
530 -> 532 ;
533 [label="PTRATIO <= 18.1\nsquared_error = 0.225\nsamples = 9\nvalue = 17.956", fillcolor="#f8dbc6"] ;
529 -> 533 ;
534 [label="DIS <= 2.408\nsquared_error = 0.063\nsamples = 2\nvalue = 18.55", fillcolor="#f7d9c3"] ;
533 -> 534 ;
535 [label="squared_error = 0.0\nsamples = 1\nvalue = 18.8", fillcolor="#f7d8c2"] ;
534 -> 535 ;
536 [label="squared_error = 0.0\nsamples = 1\nvalue = 18.3", fillcolor="#f7dac4"] ;
534 -> 536 ;
537 [label="CRIM <= 0.324\nsquared_error = 0.141\nsamples = 7\nvalue = 17.786", fillcolor="#f8dbc7"] ;
533 -> 537 ;
538 [label="NOX <= 0.562\nsquared_error = 0.035\nsamples = 4\nvalue = 17.5", fillcolor="#f8dcc8"] ;
537 -> 538 ;
539 [label="squared_error = 0.0\nsamples = 1\nvalue = 17.8", fillcolor="#f8dbc7"] ;
538 -> 539 ;
540 [label="PTRATIO <= 19.15\nsquared_error = 0.007\nsamples = 3\nvalue = 17.4", fillcolor="#f8dcc8"] ;
538 -> 540 ;
541 [label="squared_error = 0.0\nsamples = 1\nvalue = 17.3", fillcolor="#f8ddc9"] ;
540 -> 541 ;
542 [label="TAX <= 414.0\nsquared_error = 0.002\nsamples = 2\nvalue = 17.45", fillcolor="#f8dcc8"] ;
540 -> 542 ;
543 [label="squared_error = 0.0\nsamples = 1\nvalue = 17.5", fillcolor="#f8dcc8"] ;
542 -> 543 ;
544 [label="squared_error = 0.0\nsamples = 1\nvalue = 17.4", fillcolor="#f8dcc8"] ;
542 -> 544 ;
545 [label="AGE <= 96.8\nsquared_error = 0.029\nsamples = 3\nvalue = 18.167", fillcolor="#f7dac5"] ;
537 -> 545 ;
546 [label="squared_error = 0.0\nsamples = 1\nvalue = 18.4", fillcolor="#f7d9c4"] ;
545 -> 546 ;
547 [label="LSTAT <= 16.175\nsquared_error = 0.003\nsamples = 2\nvalue = 18.05", fillcolor="#f7dac6"] ;
545 -> 547 ;
548 [label="squared_error = 0.0\nsamples = 1\nvalue = 18.0", fillcolor="#f7dbc6"] ;
547 -> 548 ;
549 [label="squared_error = 0.0\nsamples = 1\nvalue = 18.1", fillcolor="#f7dac5"] ;
547 -> 549 ;
550 [label="TAX <= 551.5\nsquared_error = 3.955\nsamples = 29\nvalue = 15.197", fillcolor="#f9e2d2"] ;
514 -> 550 ;
551 [label="DIS <= 1.633\nsquared_error = 1.425\nsamples = 20\nvalue = 14.405", fillcolor="#fae5d6"] ;
550 -> 551 ;
552 [label="AGE <= 94.35\nsquared_error = 1.649\nsamples = 8\nvalue = 15.075", fillcolor="#f9e3d3"] ;
551 -> 552 ;
553 [label="squared_error = 0.0\nsamples = 1\nvalue = 17.8", fillcolor="#f8dbc7"] ;
552 -> 553 ;
554 [label="LSTAT <= 26.62\nsquared_error = 0.673\nsamples = 7\nvalue = 14.686", fillcolor="#f9e4d4"] ;
552 -> 554 ;
555 [label="AGE <= 97.45\nsquared_error = 0.009\nsamples = 3\nvalue = 15.533", fillcolor="#f9e2d1"] ;
554 -> 555 ;
556 [label="squared_error = 0.0\nsamples = 1\nvalue = 15.4", fillcolor="#f9e2d1"] ;
555 -> 556 ;
557 [label="squared_error = -0.0\nsamples = 2\nvalue = 15.6", fillcolor="#f9e1d0"] ;
555 -> 557 ;
558 [label="RM <= 5.211\nsquared_error = 0.227\nsamples = 4\nvalue = 14.05", fillcolor="#fae6d7"] ;
554 -> 558 ;
559 [label="AGE <= 97.85\nsquared_error = 0.01\nsamples = 2\nvalue = 14.5", fillcolor="#fae4d5"] ;
558 -> 559 ;
560 [label="squared_error = 0.0\nsamples = 1\nvalue = 14.6", fillcolor="#f9e4d5"] ;
559 -> 560 ;
561 [label="squared_error = -0.0\nsamples = 1\nvalue = 14.4", fillcolor="#fae5d6"] ;
559 -> 561 ;
562 [label="CHAS <= 0.5\nsquared_error = 0.04\nsamples = 2\nvalue = 13.6", fillcolor="#fae7d9"] ;
558 -> 562 ;
563 [label="squared_error = 0.0\nsamples = 1\nvalue = 13.8", fillcolor="#fae6d8"] ;
562 -> 563 ;
564 [label="squared_error = -0.0\nsamples = 1\nvalue = 13.4", fillcolor="#fae7da"] ;
562 -> 564 ;
565 [label="B <= 385.45\nsquared_error = 0.777\nsamples = 12\nvalue = 13.958", fillcolor="#fae6d8"] ;
551 -> 565 ;
566 [label="DIS <= 4.343\nsquared_error = 0.364\nsamples = 8\nvalue = 13.487", fillcolor="#fae7da"] ;
565 -> 566 ;
567 [label="AGE <= 95.95\nsquared_error = 0.087\nsamples = 6\nvalue = 13.2", fillcolor="#fae8db"] ;
566 -> 567 ;
568 [label="DIS <= 4.111\nsquared_error = 0.037\nsamples = 4\nvalue = 13.025", fillcolor="#fae9dc"] ;
567 -> 568 ;
569 [label="LSTAT <= 23.03\nsquared_error = 0.002\nsamples = 3\nvalue = 13.133", fillcolor="#fae8db"] ;
568 -> 569 ;
570 [label="squared_error = 0.0\nsamples = 2\nvalue = 13.1", fillcolor="#fae8db"] ;
569 -> 570 ;
571 [label="squared_error = -0.0\nsamples = 1\nvalue = 13.2", fillcolor="#fae8db"] ;
569 -> 571 ;
572 [label="squared_error = 0.0\nsamples = 1\nvalue = 12.7", fillcolor="#fbe9dd"] ;
568 -> 572 ;
573 [label="DIS <= 3.779\nsquared_error = 0.002\nsamples = 2\nvalue = 13.55", fillcolor="#fae7d9"] ;
567 -> 573 ;
574 [label="squared_error = 0.0\nsamples = 1\nvalue = 13.5", fillcolor="#fae7da"] ;
573 -> 574 ;
575 [label="squared_error = -0.0\nsamples = 1\nvalue = 13.6", fillcolor="#fae7d9"] ;
573 -> 575 ;
576 [label="DIS <= 4.454\nsquared_error = 0.203\nsamples = 2\nvalue = 14.35", fillcolor="#fae5d6"] ;
566 -> 576 ;
577 [label="squared_error = 0.0\nsamples = 1\nvalue = 14.8", fillcolor="#f9e4d4"] ;
576 -> 577 ;
578 [label="squared_error = -0.0\nsamples = 1\nvalue = 13.9", fillcolor="#fae6d8"] ;
576 -> 578 ;
579 [label="RM <= 5.868\nsquared_error = 0.275\nsamples = 4\nvalue = 14.9", fillcolor="#f9e3d3"] ;
565 -> 579 ;
580 [label="NOX <= 0.581\nsquared_error = 0.01\nsamples = 2\nvalue = 14.4", fillcolor="#fae5d6"] ;
579 -> 580 ;
581 [label="squared_error = 0.0\nsamples = 1\nvalue = 14.5", fillcolor="#fae4d5"] ;
580 -> 581 ;
582 [label="squared_error = 0.0\nsamples = 1\nvalue = 14.3", fillcolor="#fae5d6"] ;
580 -> 582 ;
583 [label="B <= 395.615\nsquared_error = 0.04\nsamples = 2\nvalue = 15.4", fillcolor="#f9e2d1"] ;
579 -> 583 ;
584 [label="squared_error = 0.0\nsamples = 1\nvalue = 15.6", fillcolor="#f9e1d0"] ;
583 -> 584 ;
585 [label="squared_error = 0.0\nsamples = 1\nvalue = 15.2", fillcolor="#f9e2d2"] ;
583 -> 585 ;
586 [label="CRIM <= 4.546\nsquared_error = 5.089\nsamples = 9\nvalue = 16.956", fillcolor="#f8deca"] ;
550 -> 586 ;
587 [label="AGE <= 84.35\nsquared_error = 0.162\nsamples = 3\nvalue = 19.333", fillcolor="#f7d7c0"] ;
586 -> 587 ;
588 [label="squared_error = 0.0\nsamples = 1\nvalue = 19.9", fillcolor="#f6d5bd"] ;
587 -> 588 ;
589 [label="B <= 176.65\nsquared_error = 0.002\nsamples = 2\nvalue = 19.05", fillcolor="#f7d8c1"] ;
587 -> 589 ;
590 [label="squared_error = 0.0\nsamples = 1\nvalue = 19.0", fillcolor="#f7d8c1"] ;
589 -> 590 ;
591 [label="squared_error = 0.0\nsamples = 1\nvalue = 19.1", fillcolor="#f7d8c1"] ;
589 -> 591 ;
592 [label="AGE <= 88.95\nsquared_error = 3.312\nsamples = 6\nvalue = 15.767", fillcolor="#f9e1d0"] ;
586 -> 592 ;
593 [label="CRIM <= 5.125\nsquared_error = 0.64\nsamples = 2\nvalue = 13.5", fillcolor="#fae7da"] ;
592 -> 593 ;
594 [label="squared_error = 0.0\nsamples = 1\nvalue = 12.7", fillcolor="#fbe9dd"] ;
593 -> 594 ;
595 [label="squared_error = -0.0\nsamples = 1\nvalue = 14.3", fillcolor="#fae5d6"] ;
593 -> 595 ;
596 [label="AGE <= 96.8\nsquared_error = 0.795\nsamples = 4\nvalue = 16.9", fillcolor="#f8decb"] ;
592 -> 596 ;
597 [label="B <= 390.65\nsquared_error = 0.06\nsamples = 3\nvalue = 16.4", fillcolor="#f8dfcd"] ;
596 -> 597 ;
598 [label="LSTAT <= 16.845\nsquared_error = 0.023\nsamples = 2\nvalue = 16.25", fillcolor="#f8e0ce"] ;
597 -> 598 ;
599 [label="squared_error = 0.0\nsamples = 1\nvalue = 16.4", fillcolor="#f8dfcd"] ;
598 -> 599 ;
600 [label="squared_error = 0.0\nsamples = 1\nvalue = 16.1", fillcolor="#f9e0ce"] ;
598 -> 600 ;
601 [label="squared_error = -0.0\nsamples = 1\nvalue = 16.7", fillcolor="#f8decc"] ;
597 -> 601 ;
602 [label="squared_error = -0.0\nsamples = 1\nvalue = 18.4", fillcolor="#f7d9c4"] ;
596 -> 602 ;
603 [label="B <= 367.08\nsquared_error = 12.202\nsamples = 4\nvalue = 10.975", fillcolor="#fceee5"] ;
513 -> 603 ;
604 [label="RM <= 5.253\nsquared_error = 0.303\nsamples = 2\nvalue = 7.55", fillcolor="#fef8f4"] ;
603 -> 604 ;
605 [label="squared_error = 0.0\nsamples = 1\nvalue = 8.1", fillcolor="#fdf6f1"] ;
604 -> 605 ;
606 [label="squared_error = 0.0\nsamples = 1\nvalue = 7.0", fillcolor="#fef9f6"] ;
604 -> 606 ;
607 [label="AGE <= 95.75\nsquared_error = 0.64\nsamples = 2\nvalue = 14.4", fillcolor="#fae5d6"] ;
603 -> 607 ;
608 [label="squared_error = 0.0\nsamples = 1\nvalue = 15.2", fillcolor="#f9e2d2"] ;
607 -> 608 ;
609 [label="squared_error = 0.0\nsamples = 1\nvalue = 13.6", fillcolor="#fae7d9"] ;
607 -> 609 ;
610 [label="LSTAT <= 20.315\nsquared_error = 10.815\nsamples = 59\nvalue = 11.881", fillcolor="#fbece1"] ;
488 -> 610 ;
611 [label="DIS <= 2.846\nsquared_error = 6.182\nsamples = 27\nvalue = 13.93", fillcolor="#fae6d8"] ;
610 -> 611 ;
612 [label="NOX <= 0.697\nsquared_error = 5.352\nsamples = 26\nvalue = 13.731", fillcolor="#fae7d9"] ;
611 -> 612 ;
613 [label="RM <= 5.36\nsquared_error = 4.03\nsamples = 10\nvalue = 12.52", fillcolor="#fbeade"] ;
612 -> 613 ;
614 [label="squared_error = 0.0\nsamples = 1\nvalue = 16.3", fillcolor="#f8dfcd"] ;
613 -> 614 ;
615 [label="DIS <= 1.636\nsquared_error = 2.713\nsamples = 9\nvalue = 12.1", fillcolor="#fbebe0"] ;
613 -> 615 ;
616 [label="LSTAT <= 18.565\nsquared_error = 0.903\nsamples = 2\nvalue = 9.45", fillcolor="#fcf3eb"] ;
615 -> 616 ;
617 [label="squared_error = 0.0\nsamples = 1\nvalue = 10.4", fillcolor="#fcf0e7"] ;
616 -> 617 ;
618 [label="squared_error = 0.0\nsamples = 1\nvalue = 8.5", fillcolor="#fdf5f0"] ;
616 -> 618 ;
619 [label="DIS <= 2.076\nsquared_error = 0.651\nsamples = 7\nvalue = 12.857", fillcolor="#fae9dc"] ;
615 -> 619 ;
620 [label="LSTAT <= 17.14\nsquared_error = 0.459\nsamples = 6\nvalue = 12.65", fillcolor="#fbeadd"] ;
619 -> 620 ;
621 [label="LSTAT <= 15.76\nsquared_error = 0.207\nsamples = 3\nvalue = 13.2", fillcolor="#fae8db"] ;
620 -> 621 ;
622 [label="squared_error = 0.0\nsamples = 1\nvalue = 13.8", fillcolor="#fae6d8"] ;
621 -> 622 ;
623 [label="LSTAT <= 16.735\nsquared_error = 0.04\nsamples = 2\nvalue = 12.9", fillcolor="#fae9dc"] ;
621 -> 623 ;
624 [label="squared_error = 0.0\nsamples = 1\nvalue = 12.7", fillcolor="#fbe9dd"] ;
623 -> 624 ;
625 [label="squared_error = 0.0\nsamples = 1\nvalue = 13.1", fillcolor="#fae8db"] ;
623 -> 625 ;
626 [label="LSTAT <= 18.265\nsquared_error = 0.107\nsamples = 3\nvalue = 12.1", fillcolor="#fbebe0"] ;
620 -> 626 ;
627 [label="squared_error = 0.0\nsamples = 1\nvalue = 11.7", fillcolor="#fbece2"] ;
626 -> 627 ;
628 [label="RM <= 6.405\nsquared_error = 0.04\nsamples = 2\nvalue = 12.3", fillcolor="#fbebdf"] ;
626 -> 628 ;
629 [label="squared_error = 0.0\nsamples = 1\nvalue = 12.1", fillcolor="#fbebe0"] ;
628 -> 629 ;
630 [label="squared_error = -0.0\nsamples = 1\nvalue = 12.5", fillcolor="#fbeade"] ;
628 -> 630 ;
631 [label="squared_error = 0.0\nsamples = 1\nvalue = 14.1", fillcolor="#fae6d7"] ;
619 -> 631 ;
632 [label="CRIM <= 12.5\nsquared_error = 4.69\nsamples = 16\nvalue = 14.487", fillcolor="#fae4d5"] ;
612 -> 632 ;
633 [label="AGE <= 96.8\nsquared_error = 2.798\nsamples = 14\nvalue = 15.036", fillcolor="#f9e3d3"] ;
632 -> 633 ;
634 [label="AGE <= 95.95\nsquared_error = 0.698\nsamples = 6\nvalue = 13.917", fillcolor="#fae6d8"] ;
633 -> 634 ;
635 [label="B <= 5.09\nsquared_error = 0.422\nsamples = 5\nvalue = 14.18", fillcolor="#fae5d7"] ;
634 -> 635 ;
636 [label="RM <= 6.342\nsquared_error = 0.003\nsamples = 2\nvalue = 13.45", fillcolor="#fae7da"] ;
635 -> 636 ;
637 [label="squared_error = 0.0\nsamples = 1\nvalue = 13.5", fillcolor="#fae7da"] ;
636 -> 637 ;
638 [label="squared_error = 0.0\nsamples = 1\nvalue = 13.4", fillcolor="#fae7da"] ;
636 -> 638 ;
639 [label="CRIM <= 7.387\nsquared_error = 0.109\nsamples = 3\nvalue = 14.667", fillcolor="#f9e4d4"] ;
635 -> 639 ;
640 [label="squared_error = 0.0\nsamples = 1\nvalue = 14.2", fillcolor="#fae5d7"] ;
639 -> 640 ;
641 [label="CRIM <= 8.633\nsquared_error = 0.0\nsamples = 2\nvalue = 14.9", fillcolor="#f9e3d3"] ;
639 -> 641 ;
642 [label="squared_error = 0.0\nsamples = 1\nvalue = 14.9", fillcolor="#f9e3d3"] ;
641 -> 642 ;
643 [label="squared_error = 0.0\nsamples = 1\nvalue = 14.9", fillcolor="#f9e3d3"] ;
641 -> 643 ;
644 [label="squared_error = 0.0\nsamples = 1\nvalue = 12.6", fillcolor="#fbeade"] ;
634 -> 644 ;
645 [label="B <= 311.48\nsquared_error = 2.729\nsamples = 8\nvalue = 15.875", fillcolor="#f9e1cf"] ;
633 -> 645 ;
646 [label="squared_error = 0.0\nsamples = 1\nvalue = 13.0", fillcolor="#fae9dc"] ;
645 -> 646 ;
647 [label="B <= 386.345\nsquared_error = 1.77\nsamples = 7\nvalue = 16.286", fillcolor="#f8dfcd"] ;
645 -> 647 ;
648 [label="DIS <= 2.094\nsquared_error = 0.222\nsamples = 4\nvalue = 17.35", fillcolor="#f8dcc9"] ;
647 -> 648 ;
649 [label="NOX <= 0.729\nsquared_error = 0.04\nsamples = 2\nvalue = 16.9", fillcolor="#f8decb"] ;
648 -> 649 ;
650 [label="squared_error = 0.0\nsamples = 1\nvalue = 16.7", fillcolor="#f8decc"] ;
649 -> 650 ;
651 [label="squared_error = 0.0\nsamples = 1\nvalue = 17.1", fillcolor="#f8ddca"] ;
649 -> 651 ;
652 [label="squared_error = -0.0\nsamples = 2\nvalue = 17.8", fillcolor="#f8dbc7"] ;
648 -> 652 ;
653 [label="DIS <= 2.12\nsquared_error = 0.309\nsamples = 3\nvalue = 14.867", fillcolor="#f9e3d4"] ;
647 -> 653 ;
654 [label="AGE <= 98.5\nsquared_error = 0.023\nsamples = 2\nvalue = 15.25", fillcolor="#f9e2d2"] ;
653 -> 654 ;
655 [label="squared_error = 0.0\nsamples = 1\nvalue = 15.1", fillcolor="#f9e3d3"] ;
654 -> 655 ;
656 [label="squared_error = 0.0\nsamples = 1\nvalue = 15.4", fillcolor="#f9e2d1"] ;
654 -> 656 ;
657 [label="squared_error = -0.0\nsamples = 1\nvalue = 14.1", fillcolor="#fae6d7"] ;
653 -> 657 ;
658 [label="NOX <= 0.727\nsquared_error = 1.103\nsamples = 2\nvalue = 10.65", fillcolor="#fcefe6"] ;
632 -> 658 ;
659 [label="squared_error = 0.0\nsamples = 1\nvalue = 11.7", fillcolor="#fbece2"] ;
658 -> 659 ;
660 [label="squared_error = 0.0\nsamples = 1\nvalue = 9.6", fillcolor="#fcf2eb"] ;
658 -> 660 ;
661 [label="squared_error = -0.0\nsamples = 1\nvalue = 19.1", fillcolor="#f7d8c1"] ;
611 -> 661 ;
662 [label="NOX <= 0.675\nsquared_error = 8.197\nsamples = 32\nvalue = 10.153", fillcolor="#fcf1e8"] ;
610 -> 662 ;
663 [label="NOX <= 0.606\nsquared_error = 4.016\nsamples = 10\nvalue = 13.04", fillcolor="#fae8dc"] ;
662 -> 663 ;
664 [label="squared_error = 0.0\nsamples = 1\nvalue = 17.9", fillcolor="#f8dbc6"] ;
663 -> 664 ;
665 [label="CRIM <= 15.581\nsquared_error = 1.547\nsamples = 9\nvalue = 12.5", fillcolor="#fbeade"] ;
663 -> 665 ;
666 [label="DIS <= 2.061\nsquared_error = 0.462\nsamples = 5\nvalue = 13.28", fillcolor="#fae8db"] ;
665 -> 666 ;
667 [label="DIS <= 1.351\nsquared_error = 0.065\nsamples = 4\nvalue = 13.6", fillcolor="#fae7d9"] ;
666 -> 667 ;
668 [label="B <= 379.96\nsquared_error = 0.002\nsamples = 2\nvalue = 13.85", fillcolor="#fae6d8"] ;
667 -> 668 ;
669 [label="squared_error = 0.0\nsamples = 1\nvalue = 13.9", fillcolor="#fae6d8"] ;
668 -> 669 ;
670 [label="squared_error = -0.0\nsamples = 1\nvalue = 13.8", fillcolor="#fae6d8"] ;
668 -> 670 ;
671 [label="DIS <= 1.69\nsquared_error = 0.003\nsamples = 2\nvalue = 13.35", fillcolor="#fae8da"] ;
667 -> 671 ;
672 [label="squared_error = 0.0\nsamples = 1\nvalue = 13.3", fillcolor="#fae8da"] ;
671 -> 672 ;
673 [label="squared_error = -0.0\nsamples = 1\nvalue = 13.4", fillcolor="#fae7da"] ;
671 -> 673 ;
674 [label="squared_error = 0.0\nsamples = 1\nvalue = 12.0", fillcolor="#fbebe0"] ;
666 -> 674 ;
675 [label="CRIM <= 19.291\nsquared_error = 1.192\nsamples = 4\nvalue = 11.525", fillcolor="#fbede2"] ;
665 -> 675 ;
676 [label="CRIM <= 16.871\nsquared_error = 0.122\nsamples = 2\nvalue = 10.55", fillcolor="#fcefe7"] ;
675 -> 676 ;
677 [label="squared_error = 0.0\nsamples = 1\nvalue = 10.9", fillcolor="#fceee5"] ;
676 -> 677 ;
678 [label="squared_error = -0.0\nsamples = 1\nvalue = 10.2", fillcolor="#fcf0e8"] ;
676 -> 678 ;
679 [label="LSTAT <= 23.515\nsquared_error = 0.36\nsamples = 2\nvalue = 12.5", fillcolor="#fbeade"] ;
675 -> 679 ;
680 [label="squared_error = 0.0\nsamples = 1\nvalue = 11.9", fillcolor="#fbece1"] ;
679 -> 680 ;
681 [label="squared_error = 0.0\nsamples = 1\nvalue = 13.1", fillcolor="#fae8db"] ;
679 -> 681 ;
682 [label="DIS <= 1.577\nsquared_error = 4.588\nsamples = 22\nvalue = 8.841", fillcolor="#fdf4ee"] ;
662 -> 682 ;
683 [label="CRIM <= 29.218\nsquared_error = 1.795\nsamples = 6\nvalue = 6.583", fillcolor="#fefbf8"] ;
682 -> 683 ;
684 [label="CRIM <= 18.448\nsquared_error = 0.812\nsamples = 4\nvalue = 7.375", fillcolor="#fef8f5"] ;
683 -> 684 ;
685 [label="AGE <= 87.95\nsquared_error = 0.18\nsamples = 3\nvalue = 6.9", fillcolor="#fefaf7"] ;
684 -> 685 ;
686 [label="squared_error = 0.0\nsamples = 1\nvalue = 6.3", fillcolor="#fefbf9"] ;
685 -> 686 ;
687 [label="DIS <= 1.5\nsquared_error = 0.0\nsamples = 2\nvalue = 7.2", fillcolor="#fef9f5"] ;
685 -> 687 ;
688 [label="squared_error = 0.0\nsamples = 1\nvalue = 7.2", fillcolor="#fef9f5"] ;
687 -> 688 ;
689 [label="squared_error = 0.0\nsamples = 1\nvalue = 7.2", fillcolor="#fef9f5"] ;
687 -> 689 ;
690 [label="squared_error = 0.0\nsamples = 1\nvalue = 8.8", fillcolor="#fdf4ee"] ;
684 -> 690 ;
691 [label="B <= 390.935\nsquared_error = 0.0\nsamples = 2\nvalue = 5.0", fillcolor="#ffffff"] ;
683 -> 691 ;
692 [label="squared_error = 0.0\nsamples = 1\nvalue = 5.0", fillcolor="#ffffff"] ;
691 -> 692 ;
693 [label="squared_error = 0.0\nsamples = 1\nvalue = 5.0", fillcolor="#ffffff"] ;
691 -> 693 ;
694 [label="LSTAT <= 24.03\nsquared_error = 3.007\nsamples = 16\nvalue = 9.688", fillcolor="#fcf2ea"] ;
682 -> 694 ;
695 [label="RM <= 6.641\nsquared_error = 1.409\nsamples = 8\nvalue = 11.012", fillcolor="#fceee5"] ;
694 -> 695 ;
696 [label="CRIM <= 11.737\nsquared_error = 0.496\nsamples = 7\nvalue = 11.386", fillcolor="#fbede3"] ;
695 -> 696 ;
697 [label="NOX <= 0.72\nsquared_error = 0.382\nsamples = 5\nvalue = 11.68", fillcolor="#fbece2"] ;
696 -> 697 ;
698 [label="DIS <= 1.832\nsquared_error = 0.042\nsamples = 3\nvalue = 11.267", fillcolor="#fbede3"] ;
697 -> 698 ;
699 [label="AGE <= 99.45\nsquared_error = 0.01\nsamples = 2\nvalue = 11.4", fillcolor="#fbede3"] ;
698 -> 699 ;
700 [label="squared_error = 0.0\nsamples = 1\nvalue = 11.5", fillcolor="#fbede2"] ;
699 -> 700 ;
701 [label="squared_error = -0.0\nsamples = 1\nvalue = 11.3", fillcolor="#fbede3"] ;
699 -> 701 ;
702 [label="squared_error = 0.0\nsamples = 1\nvalue = 11.0", fillcolor="#fceee5"] ;
698 -> 702 ;
703 [label="B <= 219.98\nsquared_error = 0.25\nsamples = 2\nvalue = 12.3", fillcolor="#fbebdf"] ;
697 -> 703 ;
704 [label="squared_error = 0.0\nsamples = 1\nvalue = 11.8", fillcolor="#fbece1"] ;
703 -> 704 ;
705 [label="squared_error = 0.0\nsamples = 1\nvalue = 12.8", fillcolor="#fae9dd"] ;
703 -> 705 ;
706 [label="RM <= 5.836\nsquared_error = 0.023\nsamples = 2\nvalue = 10.65", fillcolor="#fcefe6"] ;
696 -> 706 ;
707 [label="squared_error = 0.0\nsamples = 1\nvalue = 10.5", fillcolor="#fcf0e7"] ;
706 -> 707 ;
708 [label="squared_error = 0.0\nsamples = 1\nvalue = 10.8", fillcolor="#fcefe5"] ;
706 -> 708 ;
709 [label="squared_error = -0.0\nsamples = 1\nvalue = 8.4", fillcolor="#fdf5f0"] ;
695 -> 709 ;
710 [label="DIS <= 1.598\nsquared_error = 1.095\nsamples = 8\nvalue = 8.362", fillcolor="#fdf6f0"] ;
694 -> 710 ;
711 [label="squared_error = 0.0\nsamples = 1\nvalue = 10.2", fillcolor="#fcf0e8"] ;
710 -> 711 ;
712 [label="DIS <= 1.872\nsquared_error = 0.7\nsamples = 7\nvalue = 8.1", fillcolor="#fdf6f1"] ;
710 -> 712 ;
713 [label="DIS <= 1.633\nsquared_error = 0.333\nsamples = 4\nvalue = 7.55", fillcolor="#fef8f4"] ;
712 -> 713 ;
714 [label="squared_error = 0.0\nsamples = 1\nvalue = 8.5", fillcolor="#fdf5f0"] ;
713 -> 714 ;
715 [label="RM <= 6.608\nsquared_error = 0.042\nsamples = 3\nvalue = 7.233", fillcolor="#fef9f5"] ;
713 -> 715 ;
716 [label="NOX <= 0.686\nsquared_error = 0.01\nsamples = 2\nvalue = 7.1", fillcolor="#fef9f6"] ;
715 -> 716 ;
717 [label="squared_error = 0.0\nsamples = 1\nvalue = 7.2", fillcolor="#fef9f5"] ;
716 -> 717 ;
718 [label="squared_error = 0.0\nsamples = 1\nvalue = 7.0", fillcolor="#fef9f6"] ;
716 -> 718 ;
719 [label="squared_error = 0.0\nsamples = 1\nvalue = 7.5", fillcolor="#fef8f4"] ;
715 -> 719 ;
720 [label="B <= 35.02\nsquared_error = 0.249\nsamples = 3\nvalue = 8.833", fillcolor="#fdf4ee"] ;
712 -> 720 ;
721 [label="RM <= 6.024\nsquared_error = 0.04\nsamples = 2\nvalue = 8.5", fillcolor="#fdf5f0"] ;
720 -> 721 ;
722 [label="squared_error = 0.0\nsamples = 1\nvalue = 8.3", fillcolor="#fdf6f0"] ;
721 -> 722 ;
723 [label="squared_error = -0.0\nsamples = 1\nvalue = 8.7", fillcolor="#fdf5ef"] ;
721 -> 723 ;
724 [label="squared_error = 0.0\nsamples = 1\nvalue = 9.5", fillcolor="#fcf2eb"] ;
720 -> 724 ;
}